tree
version=v4
num_class=1
num_tree_per_iteration=1
label_index=0
max_feature_idx=14
objective=binary sigmoid:1
feature_names=Column_0 Column_1 Column_2 Column_3 Column_4 Column_5 Column_6 Column_7 Column_8 Column_9 Column_10 Column_11 Column_12 Column_13 Column_14
feature_infos=[0:100] [0:500] [0:1] [0:60] [0:150] [0:1] [0:1] [0:1] [0:1] [0:1] [0:730] [0:1] [0:600] none none
tree_sizes=767 1194 1288 1396 1830 1303 1406 1409 1409 1513 1720 1305 1841 1502 1407 1401 1202 2804 1835 3422 2880 2486 2250 2912 1957 2059 2367 2062 2048 1842 2203 1736 1525 1526 1527 1421 1417 1424 1744 1533 1418 1423 1422 1430 1312 1323 1206 1210 1099 996 996 778 892 787 677 677 680 569 466 468 468 464 468 467 363 361 361 364 364 363 364 364

Tree=0
num_leaves=6
num_cat=0
split_feature=4 3 1 1 1
split_gain=9333.91 255.378 0.762563 1.81899e-12 2.84217e-14
threshold=10.500000000000002 3.5000000000000004 79.500000000000014 232.50000000000003 130.50000000000003
decision_type=2 2 2 2 2
left_child=1 2 -1 -2 -3
right_child=3 4 -4 -5 -6
leaf_value=-1.2410984156212814 -0.70522559090967629 -0.70522559090967629 -1.2028217852847383 -0.70522559090967629 -0.70522559090967651
leaf_weight=1341.9228920638561 296.15236124396324 4.8518975377082807 5.2251204252243033 139.2121370434761 4.105451762676239
leaf_count=7191 1587 26 28 746 22
internal_value=-1.10808 -1.23741 -1.24095 -0.705226 -0.705226
internal_weight=1791.47 1356.11 1347.15 435.364 8.95735
internal_count=9600 7267 7219 2333 48
is_linear=0
shrinkage=1


Tree=1
num_leaves=10
num_cat=0
split_feature=4 1 4 10 1 1 1 4 1
split_gain=6705.64 173.586 1.94788 9.49738 0.000585297 5.40777e-05 4.54747e-13 1.42109e-14 7.10543e-15
threshold=10.500000000000002 82.500000000000014 9.5000000000000018 30.500000000000004 79.500000000000014 141.50000000000003 66.500000000000014 1.5000000000000002 18.500000000000004
decision_type=2 2 2 2 2 2 2 2 2
left_child=1 2 4 -4 6 -3 -1 -8 -5
right_child=-2 5 3 8 -6 -7 7 -9 -10
leaf_value=-0.12890665627794359 0.30243031576996987 0.30723480043746154 0.021555428389665142 -0.12890665627794345 -0.13003454891986285 0.30772003912674062 -0.12890665627794359 -0.12890665627794359 -0.12890665627794359
leaf_weight=1168.4832163006067 516.34460847079754 4.8253902494907361 5.0758000463247326 3.4791818261146572 4.6182449758052817 4.3827459216117859 11.307340934872625 43.663731917738914 20.701131865382195
leaf_count=6717 2333 22 27 20 26 20 65 251 119
internal_value=-0.00130692 -0.125135 -0.128303 -0.102802 -0.128911 0.307466 -0.128907 -0.128907 -0.128907
internal_weight=1782.88 1266.54 1257.33 29.2561 1228.07 9.20814 1223.45 54.9711 24.1803
internal_count=9600 7267 7225 166 7059 42 7033 316 139
is_linear=0
shrinkage=0.1


Tree=2
num_leaves=11
num_cat=0
split_feature=4 3 1 1 4 10 1 1 1 1
split_gain=5230.67 164.558 0.76066 0.089935 0.000721605 0.00423478 9.09495e-13 2.27374e-13 1.42109e-14 7.10543e-15
threshold=10.500000000000002 3.5000000000000004 79.500000000000014 113.50000000000001 9.5000000000000018 34.500000000000007 475.50000000000006 33.500000000000007 487.50000000000006 39.500000000000007
decision_type=2 2 2 2 2 2 2 2 2 2
left_child=1 2 4 -3 7 -6 -2 -1 -8 -7
right_child=6 3 -4 -5 5 9 8 -9 -10 -11
leaf_value=-0.12541056816314153 0.24960007327470279 0.26677142996482556 -0.085134411151800482 0.24883221088057028 -0.12901425424040966 -0.1254105681631415 0.24960007327470271 -0.12541056816314153 0.24960007327470279 -0.12541056816314153
leaf_weight=955.16967129707336 542.20850938558578 4.9079924970865232 4.7053663432598105 6.4900418817996979 3.8291721343994167 9.3707444071769732 8.4044720232486743 181.11387035250664 9.6051108837127668 12.60203558206558
leaf_count=5912 2258 21 28 27 22 58 35 1121 40 78
internal_value=-0.00195436 -0.121566 -0.12526 0.256557 -0.125422 -0.125945 0.2496 -0.125411 0.2496 -0.125411
internal_weight=1738.41 1178.19 1166.79 11.398 1162.09 25.802 560.218 1136.28 18.0096 21.9728
internal_count=9600 7267 7219 48 7191 158 2333 7033 75 136
is_linear=0
shrinkage=0.1


Tree=3
num_leaves=12
num_cat=0
split_feature=4 3 1 1 4 10 0 0 0 1 1
split_gain=4252.65 138.476 0.775153 0.041938 0.00049394 0.0028894 4.54747e-13 4.54747e-13 2.27374e-13 1.13687e-13 7.10543e-15
threshold=10.500000000000002 3.5000000000000004 79.500000000000014 113.50000000000001 9.5000000000000018 34.500000000000007 97.500000000000014 72.500000000000014 13.500000000000002 418.50000000000006 48.500000000000007
decision_type=2 2 2 2 2 2 2 2 2 2 2
left_child=1 2 4 -3 8 -6 7 -2 -1 -9 -7
right_child=6 3 -4 -5 5 10 -8 9 -10 -11 -12
leaf_value=-0.12241554365701275 0.21655525321561361 0.22804118054270656 -0.080732471836053907 0.21604606968819962 -0.12550493512127492 -0.12241554365701271 0.21655525321561361 0.21655525321561361 -0.12241554365701275 0.21655525321561361 -0.12241554365701275
leaf_weight=1014.7567977905273 488.6275289952755 5.1516043990850431 4.477738991379737 6.7127652913331985 3.5566219985485104 11.218567192554476 9.6930181235074979 61.389114782214165 37.245643079280853 20.131653025746346 9.1244346499443036
leaf_count=6784 1966 21 28 27 22 75 39 247 249 81 61
internal_value=-0.00232458 -0.118522 -0.122253 0.221254 -0.122426 -0.122875 0.216555 0.216555 -0.122416 0.216555 -0.122416
internal_weight=1672.09 1092.24 1080.38 11.8644 1075.9 23.8996 579.841 570.148 1052 81.5208 20.343
internal_count=9600 7267 7219 48 7191 158 2333 2294 7033 328 136
is_linear=0
shrinkage=0.1


Tree=4
num_leaves=16
num_cat=0
split_feature=4 3 0 10 10 4 10 4 0 10 4 0 0 0 0
split_gain=3544.98 118.782 0.181137 0.995611 0.0052412 0.000248575 0.00116538 2.76397e-05 2.0123e-05 1.25804e-05 3.55225e-06 2.74451e-06 4.54747e-13 4.54747e-13 3.55271e-15
threshold=10.500000000000002 3.5000000000000004 14.500000000000002 28.500000000000004 17.500000000000004 9.5000000000000018 37.500000000000007 3.5000000000000004 4.5000000000000009 62.500000000000007 8.5000000000000018 5.5000000000000009 98.500000000000014 85.500000000000014 11.500000000000002
decision_type=2 2 2 2 2 2 2 2 2 2 2 2 2 2 2
left_child=1 2 5 -4 -3 7 -7 11 -9 -5 -11 -1 13 -2 -8
right_child=12 4 3 9 -6 6 14 8 -10 10 -12 -13 -14 -15 -16
leaf_value=-0.11983381317551126 0.19386054822474585 0.19490743703997121 -0.058838010007544066 -0.12007420411816193 0.19912590003101741 -0.12177342343486142 -0.11983282870714672 -0.11996492505454577 -0.11986568297505729 -0.11983282870714673 -0.11995561907290825 -0.11985472395552287 0.19386054822474585 0.19386054822474585 -0.11983282870714673
leaf_weight=760.74628973007202 533.71416468918324 5.2374723404645902 3.1712211370468166 3.4774648994207409 6.7295732945203781 3.8050095438957241 10.910892233252527 25.513104766607285 102.57991319894791 10.358441993594168 3.0496311783790579 68.410336598753929 6.2437314540147772 42.707123145461082 5.6626149564981452
leaf_count=5508 2137 21 22 25 27 26 79 184 742 75 22 495 25 171 41
internal_value=-0.0025516 -0.1159 -0.119657 -0.110249 0.19728 -0.11985 -0.120195 -0.119842 -0.119885 -0.119905 -0.119861 -0.119836 0.193861 0.193861 -0.119833
internal_weight=1592.32 1009.65 997.685 20.0568 11.967 977.628 20.3785 957.25 128.093 16.8855 13.4081 829.157 582.665 576.421 16.5735
internal_count=9600 7267 7219 144 48 7075 146 6929 926 122 97 6003 2333 2308 120
is_linear=0
shrinkage=0.1


Tree=5
num_leaves=11
num_cat=0
split_feature=4 3 1 1 4 0 12 12 1 4
split_gain=3004.83 103.129 0.874416 0.0155616 0.000263955 4.14742e-05 3.66458e-05 0.000128677 4.76726e-06 7.67113e-09
threshold=10.500000000000002 3.5000000000000004 79.500000000000014 113.50000000000001 9.5000000000000018 14.500000000000002 68.500000000000014 26.500000000000004 47.500000000000007 3.5000000000000004
decision_type=2 2 2 2 2 2 2 2 2 2
left_child=1 2 4 -3 5 9 7 -6 -7 -1
right_child=-2 3 -4 -5 6 8 -8 -9 -10 -11
leaf_value=-0.11759304024162619 0.17731976904201741 0.18405077740045836 -0.070511617215671299 0.17673670601274372 -0.11787179501549459 -0.11780174299398145 -0.11768688376350241 -0.11853497548145964 -0.11769318163343115 -0.11759216583519319
leaf_weight=762.97748850286007 573.70807358622551 5.1811742037534696 3.9599764496088019 6.6330437809228897 12.587156563997274 9.1041228473186511 3.9567696601152411 3.8117519021034232 7.2791607081890097 115.5177061855793
leaf_count=5997 2333 21 28 27 98 71 31 29 57 908
internal_value=-0.00269732 -0.113628 -0.117401 0.179944 -0.117604 -0.117596 -0.11796 -0.118026 -0.117754 -0.117593
internal_weight=1504.72 931.008 919.194 11.8142 915.234 894.878 20.3557 16.3989 16.3833 878.495
internal_count=9600 7267 7219 48 7191 7033 158 127 128 6905
is_linear=0
shrinkage=0.1


Tree=6
num_leaves=12
num_cat=0
split_feature=4 3 1 1 4 0 0 0 4 4 0
split_gain=2577.51 90.2748 0.902488 0.00932433 0.000186437 2.91705e-05 2.6191e-05 2.77672e-05 3.42545e-06 5.2496e-09 4.54747e-13
threshold=10.500000000000002 3.5000000000000004 79.500000000000014 113.50000000000001 9.5000000000000018 14.500000000000002 12.500000000000002 11.500000000000002 3.5000000000000004 3.5000000000000004 81.500000000000014
decision_type=2 2 2 2 2 2 2 2 2 2 2
left_child=1 2 4 -3 5 9 7 -6 -7 -1 -2
right_child=10 3 -4 -5 6 8 -8 -9 -10 -11 -12
leaf_value=-0.11564122929911654 0.16475622378938903 0.17004562807646784 -0.066671441335468859 0.16430541603154841 -0.11597151237054658 -0.11583468818377772 -0.11619177451619067 -0.11563238309659421 -0.11573876202564681 -0.11564047486797731 0.16475622378938903
leaf_weight=701.42229571938515 496.44362060725689 5.0533035695552808 3.7788637131452552 6.4314206391572952 11.734864152967932 6.7237913981080046 3.9448165968060485 3.0397609099745742 8.3398815840482694 106.19792506098747 60.1171515583992
leaf_count=5997 2081 21 28 27 99 57 33 26 71 908 252
internal_value=-0.00279364 -0.111648 -0.115432 0.166831 -0.115651 -0.115644 -0.115963 -0.115902 -0.115782 -0.115641 0.164756
internal_weight=1413.23 856.667 845.182 11.4847 841.403 822.684 18.7194 14.7746 15.0637 807.62 556.561
internal_count=9600 7267 7219 48 7191 7033 158 125 128 6905 2333
is_linear=0
shrinkage=0.1


Tree=7
num_leaves=12
num_cat=0
split_feature=4 3 1 1 4 0 12 12 1 4 0
split_gain=2230.74 79.4915 0.934359 0.00581877 0.000132468 2.06367e-05 1.89238e-05 6.62695e-05 2.43904e-06 3.77099e-09 2.27374e-13
threshold=10.500000000000002 3.5000000000000004 79.500000000000014 113.50000000000001 9.5000000000000018 14.500000000000002 68.500000000000014 26.500000000000004 47.500000000000007 3.5000000000000004 95.500000000000014
decision_type=2 2 2 2 2 2 2 2 2 2 2
left_child=1 2 4 -3 5 9 7 -6 -7 -1 -2
right_child=10 3 -4 -5 6 8 -8 -9 -10 -11 -12
leaf_value=-0.11393312861288814 0.15491978527792133 0.15918698704948542 -0.06295333365156934 0.15456205305385337 -0.11414713355635626 -0.1140939003978184 -0.11400236791921899 -0.11466487323870676 -0.11400937010956765 -0.11393246113711714 0.15491978527792133
leaf_weight=643.69865135103464 519.67542238533497 4.8675867319107038 3.6107738465070716 6.1666317582130432 10.623576775193216 7.6837502643465978 3.3381313011050215 3.2220537588000289 6.1419864445924759 97.458285868167877 14.187528043985365
leaf_count=5997 2271 21 28 27 98 71 31 29 57 908 62
internal_value=-0.00285856 -0.109913 -0.113704 0.156602 -0.113942 -0.113935 -0.114216 -0.114268 -0.114056 -0.113933 0.15492
internal_weight=1320.67 786.811 775.777 11.0342 772.166 754.983 17.1838 13.8456 13.8257 741.157 533.863
internal_count=9600 7267 7219 48 7191 7033 158 127 128 6905 2333
is_linear=0
shrinkage=0.1


Tree=8
num_leaves=12
num_cat=0
split_feature=4 3 1 1 10 4 0 4 10 0 0
split_gain=1943.96 70.3075 0.969167 0.00374424 0.000114318 0.000266648 3.29711e-05 2.86396e-07 4.18229e-08 3.4963e-08 2.27374e-13
threshold=10.500000000000002 3.5000000000000004 79.500000000000014 113.50000000000001 30.500000000000004 8.5000000000000018 13.500000000000002 9.5000000000000018 62.500000000000007 14.500000000000002 98.500000000000014
decision_type=2 2 2 2 2 2 2 2 2 2 2
left_child=1 2 4 -3 5 6 -1 9 -9 -6 -2
right_child=10 3 -4 -5 7 -7 -8 8 -10 -11 -12
leaf_value=-0.11243236927054859 0.14703790288462401 0.15054976047811694 -0.059349850369453776 0.14674825453213966 -0.11243271152637235 -0.1132976372683635 -0.11276423866399332 -0.11240765865993195 -0.11242095502701815 -0.11242692706629361 0.14703790288462401
leaf_weight=17.506167910993106 502.14039844274521 4.6436174809932691 3.4552806541323653 5.8611452430486679 657.08552052825689 5.0556029677391043 3.6111655011773101 3.0440896600484839 10.614122472703455 10.618098944425581 5.4391290992498389
leaf_count=178 2308 21 28 27 6681 49 36 31 108 108 25
internal_value=-0.00290282 -0.108388 -0.112182 0.148429 -0.11244 -0.112645 -0.112489 -0.112432 -0.112418 -0.112433 0.147038
internal_weight=1229.07 721.495 710.99 10.5048 707.535 26.1729 21.1173 681.362 13.6582 667.704 507.58
internal_count=9600 7267 7219 48 7191 263 214 6928 139 6789 2333
is_linear=0
shrinkage=0.1


Tree=9
num_leaves=13
num_cat=0
split_feature=4 3 1 1 10 4 0 4 10 0 0 1
split_gain=1703.33 62.3984 1.00618 0.00246721 8.17133e-05 0.000190546 2.35256e-05 2.03932e-07 2.60598e-08 2.48962e-08 1.13687e-13 3.55271e-15
threshold=10.500000000000002 3.5000000000000004 79.500000000000014 113.50000000000001 30.500000000000004 8.5000000000000018 13.500000000000002 9.5000000000000018 72.500000000000014 14.500000000000002 93.500000000000014 269.50000000000006
decision_type=2 2 2 2 2 2 2 2 2 2 2 2
left_child=1 2 4 -3 5 6 -1 9 -9 -6 -2 -12
right_child=10 3 -4 -5 7 -7 -8 8 -10 -11 11 -13
leaf_value=-0.11111028277487617 0.14060600458864422 0.14354136438906406 -0.055857207010473156 0.14036765390511541 -0.11111058130525515 -0.11187467027195985 -0.11140330081390144 -0.11108956850167831 -0.11110019364666608 -0.11110547857938569 0.14060600458864422 0.14060600458864422
leaf_weight=16.019041962921627 463.56867468357086 4.3960265368223173 3.3118479922413817 5.5317475646734238 601.26717744767666 4.6296946555376044 3.3053853288292876 3.055236503481864 9.4425663352012617 9.7160579413175565 5.9563542604446402 9.6534017324447614
leaf_count=178 2257 21 28 27 6681 49 36 34 105 108 29 47
internal_value=-0.00293312 -0.10704 -0.110836 0.141773 -0.111117 -0.111298 -0.11116 -0.11111 -0.111098 -0.111111 0.140606 0.140606
internal_weight=1139.85 660.675 650.747 9.92777 647.435 23.9541 19.3244 623.481 12.4978 610.983 479.178 15.6098
internal_count=9600 7267 7219 48 7191 263 214 6928 139 6789 2333 76
is_linear=0
shrinkage=0.1


Tree=10
num_leaves=15
num_cat=0
split_feature=4 0 4 10 4 0 4 0 12 0 10 12 4 4
split_gain=1499.1 45.4206 2.77921 8.16083 8.53674e-05 5.57289e-05 5.10245e-05 2.17317e-05 9.55949e-06 8.01815e-06 1.45398e-06 2.57623e-09 1.13687e-13 3.55271e-15
threshold=10.500000000000002 15.500000000000002 9.5000000000000018 29.500000000000004 3.5000000000000004 4.5000000000000009 6.5000000000000009 14.500000000000002 21.500000000000004 5.5000000000000009 74.500000000000014 28.500000000000004 142.50000000000003 144.50000000000003
decision_type=2 2 2 2 2 2 2 2 2 2 2 2 2 2
left_child=1 2 4 -4 7 6 -6 9 -7 -1 -5 -12 -2 -14
right_child=12 -3 3 10 5 8 -8 -9 -10 -11 11 -13 13 -15
leaf_value=-0.10994445945788832 0.13527977868455207 0.1446343532762637 0.0548090075119715 -0.1100126048074728 -0.11042626423683757 -0.10998766537863161 -0.11006125333149766 -0.11016116637775988 -0.11006369252097031 -0.10999072930394425 -0.10993429979530561 -0.10993070318442362 0.13527977868455207 0.13527977868455207
leaf_weight=453.11001981794834 434.52421218156815 7.153792291879653 4.0569398403167716 3.140853375196456 7.1875824555754653 37.938536398112774 8.1976012885570508 4.8422992676496497 29.320013903081417 40.826855540275574 5.2607886716723424 3.2048398032784462 5.39781630039215 9.8317368328571302
leaf_count=5508 2254 37 30 38 85 460 99 58 354 495 64 39 28 51
internal_value=-0.00295379 -0.105845 -0.108846 -0.0672796 -0.109966 -0.11006 -0.110232 -0.10995 -0.110021 -0.109948 -0.109954 -0.109933 0.13528 0.13528
internal_weight=1053.99 604.24 597.086 15.6634 581.423 82.6437 15.3852 498.779 67.2586 493.937 11.6065 8.46563 449.754 15.2296
internal_count=9600 7267 7230 171 7059 998 184 6061 814 6003 141 103 2333 79
is_linear=0
shrinkage=0.1


Tree=11
num_leaves=11
num_cat=0
split_feature=4 3 1 1 4 10 10 10 4 11
split_gain=1324 50.087 0.621625 0.0016243 0.00024025 0.000771951 3.17042e-06 1.15193e-06 1.58069e-08 6.21961e-10
threshold=10.500000000000002 3.5000000000000004 78.500000000000014 124.50000000000001 9.5000000000000018 47.500000000000007 28.500000000000004 22.500000000000004 2.5000000000000004 1.0000000180025095e-35
decision_type=2 2 2 2 2 2 2 2 2 2
left_child=1 2 4 -3 6 -6 7 -1 -8 -7
right_child=-2 3 -4 -5 5 9 8 -9 -10 -11
leaf_value=-0.10893394412495128 0.13081587486920374 0.13355488389638592 -0.074730632300172115 0.13083403846372377 -0.11074701249327577 -0.10889981218183967 -0.10890704289355263 -0.1089914506469081 -0.10890546828953961 -0.10889815411684017
leaf_weight=11.517018646001818 420.11519454419613 4.281495273113249 5.3715882375836363 4.5003751516342163 3.0097253993153563 4.8029343858361226 434.73539728671312 4.9936035722494116 74.710313446819782 4.2769435197114944
leaf_count=153 2333 23 60 25 35 64 5789 66 995 57
internal_value=-0.00296832 -0.104752 -0.10858 0.132161 -0.108918 -0.109359 -0.108908 -0.108951 -0.108907 -0.108899
internal_weight=972.315 552.199 543.418 8.78187 538.046 12.0896 525.956 16.5106 509.446 9.07988
internal_count=9600 7267 7219 48 7159 156 7003 219 6784 121
is_linear=0
shrinkage=0.1


Tree=12
num_leaves=16
num_cat=0
split_feature=4 3 0 10 10 10 4 10 4 4 0 12 0 0 0
split_gain=1173.04 44.7475 0.357022 0.825922 0.000231696 0.000170476 0.000273774 3.28671e-05 3.18779e-05 2.46324e-05 1.13495e-05 2.59906e-06 1.13687e-13 1.13687e-13 1.42109e-14
threshold=10.500000000000002 3.5000000000000004 14.500000000000002 53.500000000000007 17.500000000000004 30.500000000000004 8.5000000000000018 19.500000000000004 4.5000000000000009 6.5000000000000009 11.500000000000002 25.500000000000004 98.500000000000014 79.500000000000014 90.500000000000014
decision_type=2 2 2 2 2 2 2 2 2 2 2 2 2 2 2
left_child=1 2 5 -4 -3 6 7 -1 10 -10 -7 -5 13 -2 -15
right_child=12 4 3 11 -6 8 -8 -9 9 -11 -12 -13 -14 14 -16
leaf_value=-0.10799646879624486 0.12703720494486276 0.12758345419726258 -0.046378550916192002 -0.10798784021575925 0.12865770608871843 -0.10799213902294445 -0.10915242558247223 -0.10830525119031938 -0.10817835580299656 -0.10803132397744156 -0.10808971280184253 -0.10811023930496753 0.12703720494486276 0.12703720494486276 0.12703720494486276
leaf_weight=7.8157165646553057 346.79305359721184 3.5389107316732389 3.1334808245301229 4.0413278937339783 4.6403713077306747 403.17236231267452 3.2432452589273444 6.1671312749385834 16.596959173679352 36.348005674779415 12.284116685390471 3.0397189855575562 4.1883219033479682 20.774076640605927 19.098747879266739
leaf_count=114 2070 21 41 59 27 5884 43 88 239 529 178 44 25 124 114
internal_value=-0.00297719 -0.1038 -0.107627 -0.0891246 0.128193 -0.108016 -0.108325 -0.108133 -0.108004 -0.108077 -0.107995 -0.10804 0.127037 0.127037 0.127037
internal_weight=894.876 504.021 495.842 10.2145 8.17928 485.628 17.2261 13.9828 468.401 52.945 415.456 7.08105 390.854 386.666 39.8728
internal_count=9600 7267 7219 144 48 7075 245 202 6830 768 6062 103 2333 2308 238
is_linear=0
shrinkage=0.1


Tree=13
num_leaves=13
num_cat=0
split_feature=4 1 4 0 0 1 0 0 4 4 0 1
split_gain=1041.94 39.6552 0.934774 1.55697 0.0383289 0.00181959 0.0016628 3.10538e-05 2.10089e-06 2.66122e-08 1.13687e-13 1.77636e-15
threshold=10.500000000000002 82.500000000000014 9.5000000000000018 12.500000000000002 9.5000000000000018 78.500000000000014 22.500000000000004 14.500000000000002 3.5000000000000004 3.5000000000000004 95.500000000000014 320.50000000000006
decision_type=2 2 2 2 2 2 2 2 2 2 2 2
left_child=1 2 5 4 -4 7 -3 9 -9 -1 -2 -12
right_child=10 6 3 -5 -6 -7 -8 8 -10 -11 11 -13
leaf_value=-0.10717024026239406 0.12381169958654299 0.144440753295241 -0.10758311438124993 -0.021797703295369453 -0.093581524806296015 -0.10926060985119741 0.14123375686010314 -0.10742366195826579 -0.10732133921089862 -0.1071678988508436 0.12381169958654302 0.12381169958654298
leaf_weight=373.44943815097213 352.76391059160233 3.1241877377033225 4.9910007156431657 3.4214212335646144 3.2142102457582951 4.2178466990590087 3.3507233262062073 3.6590265110135061 4.44322295114398 55.795591346919537 4.815359413623808 4.8153594136238098
leaf_count=5982 2271 20 77 40 49 56 22 57 70 894 31 31
internal_value=-0.00298281 -0.102946 -0.106457 -0.0784679 -0.102098 -0.107194 0.142781 -0.107174 -0.107368 -0.10717 0.123812 0.123812
internal_weight=822.061 459.667 453.192 11.6266 8.20521 441.565 6.47491 437.347 8.10225 429.245 362.395 9.63072
internal_count=9600 7267 7225 166 126 7059 42 7003 127 6876 2333 62
is_linear=0
shrinkage=0.1


Tree=14
num_leaves=12
num_cat=0
split_feature=4 3 1 1 4 10 0 10 0 10 0
split_gain=927.365 36.3638 0.795083 0.002982 0.000236668 0.000256338 2.25408e-05 3.5283e-05 1.32743e-05 2.01659e-08 5.68434e-14
threshold=10.500000000000002 3.5000000000000004 78.500000000000014 113.50000000000001 9.5000000000000018 60.500000000000007 14.500000000000002 76.500000000000014 9.5000000000000018 30.500000000000004 96.500000000000014
decision_type=2 2 2 2 2 2 2 2 2 2 2
left_child=1 2 4 -3 6 -6 9 -8 -7 -1 -2
right_child=10 3 -4 -5 5 8 7 -9 -10 -11 -12
leaf_value=-0.10643730598758892 0.12103873968346401 0.12486803810405961 -0.063252507118136472 0.12074730758167906 -0.10769565221259303 -0.10643313229022133 -0.10688148598758357 -0.10643645668438158 -0.10672472566925228 -0.10644140629034748 0.12103873968346401
leaf_weight=12.387186359614132 327.42040514945984 3.2370602488517752 4.3045929893851271 3.8386624902486801 3.1070644184946996 3.0098486244678497 3.005358286201953 4.3747861497104168 3.2436427585780621 378.53270039707422 7.6110883653163901
leaf_count=218 2280 21 60 27 48 53 50 77 55 6658 53
internal_value=-0.00298483 -0.102144 -0.106005 0.122632 -0.106456 -0.106953 -0.106445 -0.106618 -0.106584 -0.106441 0.121039
internal_weight=754.072 419.041 411.965 7.07572 407.661 9.36056 398.3 7.38014 6.25349 390.92 335.031
internal_count=9600 7267 7219 48 7159 156 7003 127 108 6876 2333
is_linear=0
shrinkage=0.1


Tree=15
num_leaves=12
num_cat=0
split_feature=4 1 4 10 1 0 10 0 10 0 0
split_gain=827.049 32.6172 0.944032 2.09419 0.00145272 1.63801e-05 2.1237e-05 1.56471e-05 1.46303e-08 5.68434e-14 1.77636e-15
threshold=10.500000000000002 82.500000000000014 9.5000000000000018 37.500000000000007 78.500000000000014 14.500000000000002 81.500000000000014 10.500000000000002 30.500000000000004 93.500000000000014 97.500000000000014
decision_type=2 2 2 2 2 2 2 2 2 2 2
left_child=1 2 4 -4 5 8 -7 -5 -1 -2 -11
right_child=9 -3 3 7 -6 6 -8 -9 -10 10 -12
leaf_value=-0.10578734125207159 0.11864031857691332 0.14020486792508455 -0.007626089697592122 -0.105790102044875 -0.10779975459908607 -0.10614368305742031 -0.10578653569422021 -0.1060938524380186 -0.10579100213210575 0.11864031857691333 0.11864031857691329
leaf_weight=11.273736774921415 298.8960617929697 5.5048757866024962 3.1781181730329973 3.6214892975986004 3.6466114595532408 3.0465846061706534 3.6712686792016029 3.1895164921879768 344.50873485952616 4.8999354392290098 5.1647968143224716
leaf_count=218 2257 42 37 70 56 56 71 59 6658 37 39
internal_value=-0.00298597 -0.10145 -0.104986 -0.0746554 -0.105814 -0.105794 -0.105949 -0.105932 -0.105791 0.11864 0.11864
internal_weight=690.602 381.641 376.136 9.98912 366.147 362.5 6.71785 6.81101 355.782 308.961 10.0647
internal_count=9600 7267 7225 166 7059 7003 127 129 6876 2333 76
is_linear=0
shrinkage=0.1


Tree=16
num_leaves=10
num_cat=0
split_feature=4 3 0 10 4 10 4 0 0
split_gain=738.694 29.5762 0.478626 0.671618 0.000167634 0.000166815 2.62331e-05 1.68082e-05 3.74562e-06
threshold=10.500000000000002 3.5000000000000004 14.500000000000002 74.500000000000014 9.5000000000000018 81.500000000000014 3.5000000000000004 4.5000000000000009 5.5000000000000009
decision_type=2 2 2 2 2 2 2 2 2
left_child=1 2 4 -4 6 -6 8 -8 -1
right_child=-2 -3 3 -5 5 -7 7 -9 -10
leaf_value=-0.10521171986254947 0.11655496850571632 0.11841754278086025 -0.044050576766907323 -0.10529694650621502 -0.1062794991655453 -0.10531023563891702 -0.10542118884795766 -0.10526713066856913 -0.10525347783269895
leaf_weight=259.29986543208361 284.30305922031403 6.0474160909652701 3.1004958376288405 4.2374546639621258 3.0220820158720008 4.3050579912960529 8.8685865588486177 35.153611827641726 23.420680329203606
leaf_count=5508 2333 48 55 89 56 90 184 742 495
internal_value=-0.00298566 -0.100799 -0.104682 -0.0794186 -0.105237 -0.10571 -0.105226 -0.105298 -0.105215
internal_weight=631.758 347.455 341.408 7.33795 334.07 7.32714 326.743 44.0222 282.721
internal_count=9600 7267 7219 144 7075 146 6929 926 6003
is_linear=0
shrinkage=0.1


Tree=17
num_leaves=25
num_cat=0
split_feature=10 3 3 0 0 2 0 12 10 0 10 10 10 12 10 10 0 10 12 0 3 3 12 10
split_gain=637.858 39.5973 2.40531 5.58658 0.113989 0.302463 0.000111799 4.72097e-05 4.36869e-05 2.99882e-05 2.04343e-05 1.87156e-05 7.26047e-06 7.76307e-06 4.90944e-06 3.07952e-06 1.78402e-06 1.40465e-06 1.09745e-06 1.03336e-06 7.45459e-08 2.85168e-08 1.98916e-10 7.07985e-11
threshold=30.500000000000004 2.5000000000000004 3.5000000000000004 14.500000000000002 31.500000000000004 1.0000000180025095e-35 10.500000000000002 56.500000000000007 29.500000000000004 12.500000000000002 64.500000000000014 18.500000000000004 150.50000000000003 73.500000000000014 97.500000000000014 125.50000000000001 4.5000000000000009 142.50000000000003 26.500000000000004 8.5000000000000018 1.5000000000000002 1.0000000180025095e-35 106.50000000000001 178.50000000000003
decision_type=2 2 2 2 2 2 2 2 2 2 2 2 2 2 2 2 2 2 2 2 2 2 2 2
left_child=1 11 3 -3 5 -5 -4 8 -8 12 -11 -1 13 14 16 -16 -2 18 -12 21 22 23 -15 -14
right_child=9 2 6 4 -6 -7 7 -9 -10 10 17 -13 19 20 15 -17 -18 -19 -20 -21 -22 -23 -24 -25
leaf_value=-0.10492531774875427 -0.10476732781300356 -0.006802927254120828 0.1152746026248742 0.091843588463145887 0.1327276195310132 0.13174888218813849 0.11475097890400231 0.11514461914579938 0.11508580340214317 -0.10506120262214752 -0.10477687426284671 -0.10521992341362803 -0.10468928270620381 -0.1046889715518389 -0.10483360097128824 -0.10475165673588843 -0.10470678422521128 -0.10473239470327052 -0.10485374842282867 -0.10473874527330261 -0.10470401002403287 -0.10469687261355809 -0.10468969152533923 -0.10468954873072932
leaf_weight=4.5117287859320623 7.0012540966272381 5.5086963772773769 4.3162172362208358 4.120389908552168 3.1962856948375702 3.5236879736185074 242.69927883893251 3.1719486117362967 3.9604700058698645 3.3947061225771895 4.8154712244868261 4.130523607134819 10.568149011582134 4.5350378230214146 9.6304607652127761 8.7556580379605276 15.965948544442652 3.7937483675777912 3.0227494612336159 4.3940492048859587 4.0753888152539721 5.4411694481968871 24.946224179118872 187.75479752197862
leaf_count=102 162 90 38 41 28 31 2168 28 35 75 111 90 247 106 221 203 372 88 69 102 95 127 583 4388
internal_value=-0.00298464 0.105646 0.112378 0.075199 0.11687 0.110239 0.11477 0.114761 0.114756 -0.104708 -0.104845 -0.105066 -0.1047 -0.104727 -0.104756 -0.104795 -0.104725 -0.104782 -0.104807 -0.104691 -0.104691 -0.10469 -0.10469 -0.10469
internal_weight=577.234 279.139 270.497 16.3491 10.8404 7.64408 254.148 249.832 246.66 298.095 15.0267 8.64225 283.068 74.91 41.3533 18.3861 22.9672 11.632 7.83822 208.158 33.5567 203.764 29.4813 198.323
internal_count=9600 2651 2459 190 100 72 2269 2231 2203 6949 343 192 6606 1742 958 424 534 268 180 4864 784 4762 689 4635
is_linear=0
shrinkage=0.1


Tree=18
num_leaves=16
num_cat=0
split_feature=4 1 4 10 1 3 10 10 1 3 10 10 12 1 1
split_gain=592.379 24.7116 0.855459 1.30714 0.000483915 0.000126366 7.19913e-05 5.00369e-05 3.42485e-05 2.23174e-05 1.21279e-06 6.15415e-09 4.9705e-09 3.56181e-10 1.58479e-10
threshold=10.500000000000002 82.500000000000014 9.5000000000000018 50.500000000000007 77.500000000000014 3.5000000000000004 22.500000000000004 30.500000000000004 111.50000000000001 1.5000000000000002 44.500000000000007 29.500000000000004 55.500000000000007 56.500000000000007 162.50000000000003
decision_type=2 2 2 2 2 2 2 2 2 2 2 2 2 2 2
left_child=1 2 4 -4 7 6 8 9 -2 -1 -9 12 13 -7 -15
right_child=5 -3 3 -5 -6 11 -8 10 -10 -11 -12 -13 -14 14 -16
leaf_value=-0.10430056322697955 0.11390885063431865 0.13821209942769061 -0.021167227101671481 -0.10432717489831428 -0.10538019758936257 0.11313540612135793 0.11312892764541171 -0.10427337379642561 0.11347871770572145 -0.10460927081398055 -0.10422395789111805 0.11313191445050491 0.11313234473056411 0.11313612293986448 0.11313629717414671
leaf_weight=4.5343348570168001 3.1000325009226781 4.3001940399408332 3.1683861762285224 4.685099970549345 3.7275542020797721 5.4390398487448683 3.9983499795198441 5.0642442442476741 4.5948583409190178 4.8430300131440163 257.37759757041931 3.4884836226701728 3.3859661296010009 88.670329391956329 126.95175378769636
leaf_count=115 29 42 48 118 80 53 39 129 44 116 6619 34 33 864 1237
internal_value=-0.00298154 -0.0997109 -0.103321 -0.0707774 -0.104249 0.113153 0.113473 -0.104233 0.113652 -0.10446 -0.104225 0.113136 0.113136 0.113136 0.113136
internal_weight=527.329 287.7 283.4 7.85349 275.547 239.629 11.6932 271.819 7.69489 9.37736 262.442 227.936 224.447 221.061 215.622
internal_count=9600 7267 7225 166 7059 2333 112 6979 73 231 6748 2221 2187 2154 2101
is_linear=0
shrinkage=0.1


Tree=19
num_leaves=31
num_cat=0
split_feature=0 1 1 0 12 0 12 12 12 1 1 1 1 0 0 7 0 1 1 1 2 0 1 0 2 12 1 1 0 1
split_gain=445.286 86.7777 3.77097 3.48057 2.21808 0.229206 0.0754868 0.00498421 0.0617194 0.00024372 0.000186891 0.000117704 0.000111309 6.84777e-05 6.79179e-05 1.40267e-05 8.80176e-06 8.58763e-06 3.33216e-06 3.27751e-06 4.14898e-06 3.29735e-06 2.60277e-06 2.17312e-06 1.60239e-06 1.3239e-06 2.71196e-06 1.1961e-06 2.85991e-07 1.90556e-07
threshold=15.500000000000002 80.500000000000014 49.500000000000007 9.5000000000000018 56.500000000000007 11.500000000000002 33.500000000000007 10.500000000000002 14.500000000000002 76.500000000000014 71.500000000000014 58.500000000000007 74.500000000000014 14.500000000000002 29.500000000000004 1.0000000180025095e-35 7.5000000000000009 101.50000000000001 24.500000000000004 183.50000000000003 1.0000000180025095e-35 33.500000000000007 22.500000000000004 6.5000000000000009 1.0000000180025095e-35 30.500000000000004 167.50000000000003 158.50000000000003 20.500000000000004 199.50000000000003
decision_type=2 2 2 2 2 2 2 2 2 2 2 2 2 2 2 2 2 2 2 2 2 2 2 2 2 2 2 2 2 2
left_child=1 2 13 12 5 -5 15 9 -9 11 -10 -2 23 16 -13 17 18 -3 -1 20 27 -22 -18 -4 -19 26 -12 -11 -27 -21
right_child=7 6 3 4 -6 -7 -8 8 10 19 25 14 -14 -15 -16 -17 22 24 -20 29 21 -23 -24 -25 -26 28 -28 -29 -30 -31
leaf_value=-0.10380570783744757 0.11172784059235395 0.11194982947827431 -0.10382000070637232 -0.0076179546841486914 -0.10402599210676255 -0.033020536104374623 0.12872624991823331 0.12537117309745827 0.11242912859641958 0.11173519925890543 0.11163950608391093 0.11263108317465256 -0.10450732517905113 -0.10429361984062076 0.11207535061480654 0.11200815992610745 -0.10393178607192505 0.11172000534499678 -0.10386727164036121 0.11171738294634533 0.11164676649284011 0.11171501780367035 -0.1038536584366741 -0.10390270863512346 0.11180070823572863 0.11169991033178728 0.11172838778639889 0.11169097586576507 0.11173182090560932 0.11173111405087895
leaf_weight=193.78685412555933 4.1337001770734778 3.045463912189013 7.2272616624832171 5.2911265194416108 4.5089202448725691 10.806447524577377 3.1287182047963134 3.6681739315390578 4.0468324869871131 23.683783382177356 6.5328979492187482 4.7576017081737501 3.2985647581517687 3.0258226953446856 4.0894156023859978 4.4906735941767684 6.2785182893276241 5.258203409612177 9.2095725610852224 11.828201085329054 19.05094758421183 11.263614557683466 13.290179457515476 5.6683924980461597 4.6237788423895836 3.3752791658043888 7.2343627959489822 8.2450679838657361 16.727331258356571 69.4440783187747
leaf_count=5487 44 32 204 106 123 233 32 38 42 252 70 49 83 79 43 47 174 56 258 126 204 120 373 158 49 36 77 88 178 739
internal_value=-0.00297858 -0.0834819 -0.0989792 -0.0692978 -0.0420347 -0.0246709 0.114425 0.112012 0.112985 0.111753 0.111787 0.112168 -0.103989 -0.103821 0.112374 0.111856 -0.103815 0.111803 -0.103809 0.111716 0.111699 0.111672 -0.103879 -0.103856 0.111758 0.11171 0.111686 0.111724 0.111726 0.111729
internal_weight=481.02 282.938 262.392 36.8007 20.6065 16.0976 20.5468 198.081 41.5849 156.496 37.9167 12.9807 16.1942 225.591 8.84702 17.4181 222.565 12.9274 202.996 143.516 62.2434 30.3146 19.5687 12.8957 9.88198 33.8699 13.7673 31.9289 20.1026 81.2723
internal_count=9600 7494 7278 907 462 339 216 2106 441 1665 403 136 445 6371 92 184 6292 137 5745 1529 664 324 547 362 105 361 147 340 214 865
is_linear=0
shrinkage=0.1


Tree=20
num_leaves=26
num_cat=0
split_feature=3 1 3 1 11 1 1 1 1 3 1 1 1 1 3 12 1 1 3 1 3 12 12 12 1
split_gain=454.638 39.4207 1.03642 1.05406 0.863454 0.08916 0.0367374 0.00153634 0.000155139 0.000115611 7.25274e-05 7.09002e-05 9.81457e-05 4.53502e-05 2.53387e-05 1.20161e-05 1.07747e-05 5.44906e-06 4.78368e-06 1.56777e-06 3.72011e-06 6.27334e-07 3.08454e-07 8.24385e-07 3.83267e-11
threshold=3.5000000000000004 80.500000000000014 2.5000000000000004 54.500000000000007 1.0000000180025095e-35 122.50000000000001 43.500000000000007 76.500000000000014 76.500000000000014 13.500000000000002 80.500000000000014 69.500000000000014 58.500000000000007 48.500000000000007 8.5000000000000018 68.500000000000014 26.500000000000004 21.500000000000004 15.500000000000002 97.500000000000014 12.500000000000002 10.500000000000002 10.500000000000002 20.500000000000004 199.50000000000003
decision_type=2 2 2 2 2 2 2 2 2 2 2 2 2 2 2 2 2 2 2 2 2 2 2 2 2
left_child=1 2 8 6 -5 -3 16 9 13 11 -9 12 -2 17 -14 -15 -4 -1 19 20 -12 -21 24 -24 -20
right_child=7 5 3 4 -6 -7 -8 10 -10 -11 18 -13 14 15 -16 -17 -18 -19 22 21 -22 -23 23 -25 -26
leaf_value=-0.10343202660321837 0.11150977808019423 0.11082768428658417 -0.10373125905518468 -0.019198775020241719 -0.08503693977682418 0.13191593957259257 -0.090675285412685158 0.11091282046580167 -0.10414705432169441 0.11197362632066284 0.11045371725475835 0.11169282150275894 0.11111450401651179 -0.10364210726000317 0.11073217547702562 -0.10344176796597447 -0.10348743546102071 -0.10349158403991715 0.110491165660247 0.11046645861259581 0.110326356201774 0.11044675801101955 0.11042996842174382 0.11049096569166156 0.11049095052970109
leaf_weight=178.86173864081502 5.5925566703081184 3.6065774112939817 3.7084883637726325 4.0767209604382506 3.8953046575188637 4.51444461196661 3.1477007009088993 3.8030263781547538 3.253262296319007 3.1238850057125083 9.2513594031333906 3.7323265299201003 4.0039356052875519 14.670079465955498 3.0568772777915001 3.7615113221108905 3.5447774305939674 16.805435255169868 9.538753002882002 54.197302646934986 3.0493447184562674 23.032971255481243 3.1644231006503087 7.3902721777558327 62.731291130185127
leaf_count=5576 62 41 110 88 107 49 91 43 88 34 108 41 45 437 35 117 109 518 111 632 36 269 37 86 730
internal_value=-0.00296458 -0.0940709 -0.101534 -0.0787274 -0.0513687 0.122551 -0.099697 0.110574 -0.103462 0.111416 0.110481 0.11131 0.111197 -0.103451 0.110949 -0.103601 -0.103612 -0.103437 0.110471 0.110455 0.110422 0.110461 0.110489 0.110473 0.110491
internal_weight=439.514 243.846 235.725 18.373 7.97203 8.12102 10.401 195.668 217.352 19.5096 176.159 16.3857 12.6534 214.099 7.06081 18.4316 7.25327 195.667 172.356 89.531 12.3007 77.2303 82.8247 10.5547 72.27
internal_count=9600 7331 7241 505 195 90 310 2269 6736 217 2052 183 142 6648 80 554 219 6094 2009 1045 144 901 964 123 841
is_linear=0
shrinkage=0.1


Tree=21
num_leaves=22
num_cat=0
split_feature=4 10 0 0 4 4 0 3 3 3 10 3 10 12 4 4 0 10 3 0 10
split_gain=430.038 18.8848 0.254167 0.0240501 0.0755746 0.0709527 7.40316e-05 6.82665e-05 4.35729e-05 2.05057e-05 2.61634e-05 1.74211e-05 7.8301e-06 6.45445e-06 4.46619e-06 4.88974e-06 7.53719e-07 1.08439e-06 7.34046e-07 5.45878e-07 1.13154e-07
threshold=9.5000000000000018 30.500000000000004 10.500000000000002 13.500000000000002 10.500000000000002 16.500000000000004 9.5000000000000018 3.5000000000000004 8.5000000000000018 2.5000000000000004 76.500000000000014 2.5000000000000004 76.500000000000014 57.500000000000007 4.5000000000000009 6.5000000000000009 12.500000000000002 87.500000000000014 1.5000000000000002 5.5000000000000009 91.500000000000014
decision_type=2 2 2 2 2 2 2 2 2 2 2 2 2 2 2 2 2 2 2 2 2
left_child=6 2 -2 5 -5 -4 11 -6 -7 13 -11 14 -13 16 18 -16 -8 -18 19 -1 -17
right_child=1 -3 3 4 7 8 9 -9 -10 10 -12 12 -14 -15 15 20 17 -19 -20 -21 -22
leaf_value=-0.1030931917221059 0.084287012890889967 -0.10331324616886806 0.092081018743903453 0.12346976650419005 0.10970855860357542 0.11014702148352816 -0.10324695894620227 0.10940087338745919 0.10967887558249773 -0.10365507175665821 -0.10325405205339125 -0.10337344006317693 -0.10316282117427143 -0.10313368701145889 -0.10324960676807667 -0.10309403877603805 -0.10333974859957061 -0.10325839400499642 -0.10313948531261728 -0.1031312054169749 -0.10312121663921153
leaf_weight=158.64336140826344 4.1057615503668776 4.2885500993579617 3.0986474007368079 3.9136041514575473 7.5456781610846511 3.5663089305162412 6.0023835711181217 162.56917630881071 4.4929206594824791 3.090732315555214 3.4350593332201242 3.2367334403097621 3.8822516426444054 4.5546117927879086 3.9937847778201085 3.1145881693810225 3.0424564313143492 3.5502610635012388 3.6430181171745053 3.8697435967624179 3.0147585310041904
leaf_count=5451 54 139 40 45 94 43 198 2070 56 93 113 104 131 155 133 107 98 117 124 132 103
internal_value=-0.00295682 0.104195 0.108896 0.109442 0.109731 0.104941 -0.103127 0.109415 0.109886 -0.103293 -0.103444 -0.103105 -0.103259 -0.103236 -0.103099 -0.103164 -0.103273 -0.103296 -0.103095 -0.103094 -0.103107
internal_weight=400.654 193.581 189.292 185.186 174.028 11.1579 207.074 170.115 8.05923 23.6755 6.52579 183.398 7.11899 17.1497 176.279 10.1231 12.5951 6.59272 166.156 162.513 6.12935
internal_count=9600 2541 2402 2348 2209 139 7059 2164 99 774 206 6285 235 568 6050 343 413 215 5707 5583 210
is_linear=0
shrinkage=0.1


Tree=22
num_leaves=20
num_cat=0
split_feature=4 1 4 0 1 1 1 3 3 0 1 0 3 3 0 12 12 0 1
split_gain=386.504 16.9996 0.718869 0.000383191 0.000617683 0.000163357 4.48162e-05 7.201e-05 3.58833e-05 3.21446e-05 1.62716e-05 8.90734e-06 5.44897e-06 5.13825e-06 6.05828e-07 3.11731e-07 1.96739e-06 1.48714e-09 4.20684e-10
threshold=10.500000000000002 82.500000000000014 9.5000000000000018 14.500000000000002 82.500000000000014 76.500000000000014 80.500000000000014 5.5000000000000009 5.5000000000000009 9.5000000000000018 49.500000000000007 21.500000000000004 3.5000000000000004 2.5000000000000004 12.500000000000002 10.500000000000002 15.500000000000002 30.500000000000004 183.50000000000003
decision_type=2 2 2 2 2 2 2 2 2 2 2 2 2 2 2 2 2 2 2
left_child=1 2 5 4 -2 9 7 -5 -6 13 -11 -9 -8 -1 -10 18 -17 -13 -14
right_child=3 -3 -4 6 8 -7 12 11 14 10 -12 17 15 -15 -16 16 -18 -19 -20
leaf_value=-0.10278993858428914 0.10996551421680963 0.13394660306016701 -0.067310382660941984 0.10893794328837209 0.10882945056183768 -0.10352358794138135 0.10831098453643498 0.10860350865714577 0.10846914449083347 -0.10284597721380087 -0.10302670397475336 0.10840860272155391 0.10842050002310517 -0.10288354625878227 0.10841319579648437 0.108334532347724 0.10841819422442488 0.10841124198210435 0.10842009167786348
leaf_weight=158.43270139023662 4.3459480032324782 3.1093671396374694 5.8793568424880496 4.3456067144870785 3.495186120271681 3.2462215796113005 4.9566280469298354 3.2750847935676566 4.3183580562472343 11.074099179357292 9.0554692316800338 3.7204843088984472 42.62182778865099 6.0893635079264632 3.507281094789505 3.1955606117844608 23.346984542906284 5.0096723288297653 61.817072786390781
leaf_count=6000 53 42 166 58 47 103 70 45 60 413 319 52 595 224 49 45 326 70 863
internal_value=-0.0029573 -0.0980208 -0.101743 0.108481 0.108952 -0.10282 0.108433 0.108589 0.108563 -0.102808 -0.102927 0.108463 0.108414 -0.102793 0.108444 0.108418 0.108408 0.10841 0.10842
internal_weight=364.842 196.887 193.777 167.956 15.6668 187.898 152.289 16.3508 11.3208 184.652 20.1296 12.0052 135.938 164.522 7.82564 130.981 26.5425 8.73016 104.439
internal_count=9600 7267 7225 2333 209 7059 2124 225 156 6956 732 167 1899 6224 109 1829 371 122 1458
is_linear=0
shrinkage=0.1


Tree=23
num_leaves=26
num_cat=0
split_feature=4 4 10 4 10 4 4 10 10 10 10 4 10 12 12 10 12 4 4 4 10 12 12 4 10
split_gain=347.418 8.86766 7.10001 3.48765e-05 3.27717e-05 2.54799e-05 1.02155e-05 7.58794e-06 5.3399e-06 5.1009e-06 4.47518e-06 3.35269e-06 2.96185e-06 2.78591e-06 2.13144e-06 1.99776e-06 3.03853e-06 1.99649e-06 1.04368e-06 9.15934e-07 4.88512e-07 1.58344e-07 2.35733e-07 6.33088e-08 3.21402e-08
threshold=10.500000000000002 9.5000000000000018 30.500000000000004 35.500000000000007 53.500000000000007 34.500000000000007 4.5000000000000009 8.5000000000000018 4.5000000000000009 29.500000000000004 18.500000000000004 20.500000000000004 21.500000000000004 48.500000000000007 57.500000000000007 168.50000000000003 73.500000000000014 17.500000000000004 39.500000000000007 6.5000000000000009 11.500000000000002 10.500000000000002 22.500000000000004 43.500000000000007 180.50000000000003
decision_type=2 2 2 2 2 2 2 2 2 2 2 2 2 2 2 2 2 2 2 2 2 2 2 2 2
left_child=1 4 -3 5 9 7 15 8 -2 10 -1 -10 18 17 19 16 -6 -9 20 -8 -5 23 -23 -20 -17
right_child=3 2 -4 12 6 -7 14 13 11 -11 -12 -13 -14 -15 -16 24 -18 -19 21 -21 -22 22 -24 -25 -26
leaf_value=-0.10268524886432158 0.10763256038555738 0.082128816929710052 -0.1027937233852184 0.10761940840910991 -0.10257763979457153 0.10791622458859865 -0.10267273547135321 0.10765425443872284 0.10782325704741265 -0.10263555765551008 -0.10285404192554473 0.10769911187957229 0.10764246071621611 0.10772066412084241 -0.10254577916845564 -0.10252773194910376 -0.10251906107609565 0.1076113623017402 0.10756916007201778 -0.10261264440884535 0.10757083477423231 0.10751894289013396 0.10755338317681502 0.10755496052737541 -0.10251759106249925
leaf_weight=3.2594050895422679 5.3962745591998091 4.8111054562032205 3.6524923518300056 3.5491142868995649 15.958579376339911 3.6442691385745993 3.9527369420975429 15.105105854570864 4.212880611419676 5.6290118526667356 3.0317550394684076 4.4979540780186653 4.4134809747338286 3.1185358837246886 3.6238770540803662 3.2214042525738469 19.892773138359189 38.54216942191124 3.3352029845118514 7.0798454154282808 4.9697718769311905 3.0568118318915349 5.6808203458786011 53.618455693125725 104.80121243745089
leaf_count=129 82 69 139 54 654 54 158 229 63 227 115 68 67 47 150 134 830 587 51 287 76 47 87 821 4375
internal_value=-0.0029506 -0.0975839 0.00232491 0.107609 -0.102545 0.107658 -0.102533 0.107645 0.107711 -0.102705 -0.102767 0.107759 0.107563 0.107629 -0.102612 -0.102525 -0.102545 0.107623 0.107558 -0.102634 0.107591 0.107554 0.107541 0.107556 -0.102518
internal_weight=332.055 178.914 8.4636 153.141 170.451 74.5172 158.53 70.8729 14.1071 11.9202 6.29116 8.71083 78.6237 56.7658 14.6565 143.874 35.8514 53.6473 74.2102 11.0326 8.51889 65.6913 8.73763 56.9537 108.023
internal_count=9600 7267 208 2333 7059 1130 6588 1076 213 471 244 131 1203 863 595 5993 1484 816 1136 445 130 1006 134 872 4509
is_linear=0
shrinkage=0.1


Tree=24
num_leaves=17
num_cat=0
split_feature=10 3 1 1 3 3 1 11 1 12 3 10 3 1 10 3
split_gain=302.235 19.5935 1.81119 0.206288 0.862608 0.0804806 5.55109e-05 5.20393e-05 1.49236e-05 3.9817e-06 1.04618e-06 9.39694e-07 9.32599e-07 1.73135e-07 4.21767e-08 3.82514e-08
threshold=30.500000000000004 2.5000000000000004 52.500000000000007 80.500000000000014 4.5000000000000009 3.5000000000000004 74.500000000000014 1.0000000180025095e-35 48.500000000000007 56.500000000000007 1.5000000000000002 57.500000000000007 15.500000000000002 20.500000000000004 95.500000000000014 1.0000000180025095e-35
decision_type=2 2 2 2 2 2 2 2 2 2 2 2 2 2 2 2
left_child=1 -1 -3 4 -4 -5 8 -6 11 10 -10 -2 -7 15 -15 -13
right_child=6 2 3 5 7 12 -8 -9 9 -11 -12 13 -14 14 -16 -17
leaf_value=-0.10291724055744636 -0.10232802773275614 0.029155671299920624 0.052938030125464046 0.11885765930973816 0.10759539536647951 0.10676539140160445 -0.10271586861950605 0.10715755933123483 -0.10238219330534999 -0.10229773891977137 -0.10244607732917305 -0.10227243907237292 0.10678308446975932 -0.10229468037166421 -0.10228152354642778 -0.10228329564750259
leaf_weight=4.7126047238707534 3.280743032693862 3.1409729626029721 3.7075673285871771 5.778578743338584 9.5329476669430715 62.001250773668289 3.0579126942902795 3.7954044267535201 4.8956078663468343 3.9709089882671824 5.3810667730867863 116.99256154894829 57.345366332679987 3.5939179062843305 7.5658590700477362 3.3379461709409943
leaf_count=192 148 73 74 90 151 1045 123 62 216 181 232 5385 964 164 347 153
internal_value=-0.00295061 0.0977583 0.104267 0.105926 0.0956026 0.107332 -0.102294 0.107471 -0.102285 -0.102383 -0.102416 -0.102275 0.106774 -0.102274 -0.102286 -0.102273
internal_weight=302.091 150.015 145.302 142.161 17.0359 125.125 152.077 13.3284 149.019 14.2476 10.2767 134.771 119.347 131.49 11.1598 120.331
internal_count=9600 2651 2459 2386 287 2099 6949 213 6826 629 448 6197 2009 6049 511 5538
is_linear=0
shrinkage=0.1


Tree=25
num_leaves=18
num_cat=0
split_feature=4 10 4 0 10 10 0 0 0 10 12 4 4 10 0 10 10
split_gain=281.93 12.6363 0.419559 0.000176517 5.86334e-05 2.43211e-05 1.44659e-05 1.24177e-05 1.09915e-05 5.47393e-06 2.41957e-06 1.83292e-06 1.06505e-06 6.0305e-07 2.42767e-07 6.55884e-08 6.53936e-08
threshold=9.5000000000000018 30.500000000000004 10.500000000000002 14.500000000000002 30.500000000000004 9.5000000000000018 11.500000000000002 9.5000000000000018 15.500000000000002 25.500000000000004 57.500000000000007 4.5000000000000009 6.5000000000000009 76.500000000000014 5.5000000000000009 99.500000000000014 125.50000000000001
decision_type=2 2 2 2 2 2 2 2 2 2 2 2 2 2 2 2 2
left_child=4 2 -2 5 -1 -4 -7 11 -5 -10 13 14 -13 -9 15 -6 -15
right_child=1 -3 3 8 7 6 -8 10 9 -11 -12 12 -14 16 -16 -17 -18
leaf_value=-0.10239900913574639 0.074626670668904091 -0.10227567624566464 0.1067613813041904 0.10630351134599272 -0.10206063872742886 0.10660683208421784 0.10633979363788093 -0.10222006993849815 0.106104360398454 0.10618282016405184 -0.10208795812335064 -0.10214969491812964 -0.10207379608516867 -0.10215667944471191 -0.10207517513507974 -0.10205149723500773 -0.10217640447343315
leaf_weight=5.5199687965214244 4.3658705838024607 3.0052317455410948 3.1024782620370379 3.05172424763441 8.5146044511347991 3.1674276366829854 5.64221266284585 3.0883197244256717 102.50546431168914 9.7367687411606294 3.6327055692672721 3.0294341314584008 4.744234861806035 3.3119539488106966 4.8073346093296996 100.34360955283046 3.4124961756169796
leaf_count=249 69 139 53 55 431 55 101 147 1891 178 182 149 239 161 242 5094 165
internal_value=-0.00294765 0.100477 0.105108 0.106154 -0.10208 0.106521 0.106436 -0.102066 0.106116 0.106111 -0.102158 -0.102056 -0.102103 -0.102183 -0.102053 -0.102052 -0.102167
internal_weight=274.982 134.577 131.572 127.206 140.405 11.9121 8.80964 134.885 115.294 112.242 13.4455 121.439 7.77367 9.81277 113.666 108.858 6.72445
internal_count=9600 2541 2402 2333 7059 209 156 6810 2124 2069 655 6155 388 473 5767 5525 326
is_linear=0
shrinkage=0.1


Tree=26
num_leaves=21
num_cat=0
split_feature=4 4 0 1 0 1 0 0 1 1 1 0 1 1 4 1 1 1 12 11
split_gain=253.773 7.02904 5.12696 0.000204252 0.000253824 4.8036e-05 1.37015e-05 6.55411e-06 5.50067e-06 5.35566e-06 1.6696e-06 1.4477e-06 1.33e-06 1.27057e-06 2.89535e-07 1.1993e-07 8.4353e-08 8.16548e-08 4.04625e-08 1.88734e-09
threshold=9.5000000000000018 10.500000000000002 14.500000000000002 80.500000000000014 15.500000000000002 73.500000000000014 9.5000000000000018 14.500000000000002 50.500000000000007 62.500000000000007 152.50000000000003 12.500000000000002 72.500000000000014 37.500000000000007 40.500000000000007 22.500000000000004 59.500000000000007 115.50000000000001 10.500000000000002 1.0000000180025095e-35
decision_type=2 2 2 2 2 2 2 2 2 2 2 2 2 2 2 2 2 2 2 2
left_child=5 2 -2 4 -3 6 13 10 11 -6 -5 -8 -11 15 17 19 -15 -9 -16 -1
right_child=1 3 -4 7 9 -7 8 14 -10 12 -12 -13 -14 16 18 -17 -18 -19 -20 -21
leaf_value=-0.10185351345458858 -0.073967670722583617 0.10663971824725955 0.098577970131916368 0.10561113214950013 0.105735504927832 -0.10225426056695577 -0.10186677222048467 0.10547794803185509 -0.10204102087984501 0.10554844518591333 0.1055179502168683 -0.10195346486867074 0.10563958951124219 -0.10188505919864771 0.10548360001997636 -0.10187097372513187 -0.10190521046253941 0.10546865881730257 0.10547481806137833 -0.10185232683572179
leaf_weight=16.006296729668975 3.8996877428144208 3.4170698449015608 3.0839046165347099 4.5713752545416346 4.5465399697422963 3.301376035436987 3.8799450881779176 13.342794079333542 5.4586245343089104 3.2328267730772495 3.3189049772918224 3.8254727199673653 3.1717883162200451 5.304216865450142 41.594713050872087 3.6523409318178883 3.4145025201141834 32.542373608797789 6.0037769936025134 82.439421717077494
leaf_count=896 155 59 53 91 89 160 216 271 281 65 67 206 63 293 844 203 187 662 122 4617
internal_value=-0.00294747 0.0996558 0.00222725 0.105534 0.105887 -0.101878 -0.101868 0.105484 -0.101964 0.105653 0.105572 -0.10191 0.105594 -0.101856 0.105477 -0.101853 -0.101893 0.105471 0.105482 -0.101853
internal_weight=250.008 122.726 6.98359 115.742 14.3682 127.282 123.981 101.374 13.164 10.9512 7.89028 7.70542 6.40462 110.817 93.4837 102.098 8.71872 45.8852 47.5985 98.4457
internal_count=9600 2541 208 2333 276 7059 6899 2057 703 217 158 422 128 6196 1899 5716 480 933 966 5513
is_linear=0
shrinkage=0.1


Tree=27
num_leaves=18
num_cat=0
split_feature=4 4 0 0 10 3 3 0 3 0 12 3 4 11 3 0 10
split_gain=228.491 6.62365 3.86656 9.38502e-05 3.20143e-05 1.94974e-05 1.43278e-05 6.73675e-06 3.50668e-06 2.29886e-06 1.08963e-06 1.03633e-06 9.96936e-07 4.89129e-07 2.22575e-07 1.86094e-07 1.32863e-08
threshold=9.5000000000000018 10.500000000000002 13.500000000000002 14.500000000000002 30.500000000000004 6.5000000000000009 3.5000000000000004 9.5000000000000018 11.500000000000002 16.500000000000004 56.500000000000007 4.5000000000000009 4.5000000000000009 1.0000000180025095e-35 1.5000000000000002 12.500000000000002 138.50000000000003
decision_type=2 2 2 2 2 2 2 2 2 2 2 2 2 2 2 2 2
left_child=4 2 -2 5 -1 -3 -5 12 -7 -8 15 -11 14 -14 16 -9 -6
right_child=1 3 -4 6 7 8 9 10 -10 11 -12 -13 13 -15 -16 -17 -18
leaf_value=-0.10195623392375426 -0.071134271683500672 0.10546803385206471 0.081453840717857828 0.10513181207098042 -0.10167645733278663 0.10524851901648223 0.10501530506274431 -0.10176417038685735 0.10510117733011488 0.10498576398487686 -0.10170896150483717 0.10493563855324933 -0.1017419667242726 -0.10168658484949514 -0.10169947538615987 -0.10179477273259828 -0.10167299871931242
leaf_weight=4.5388695858418933 3.460172824561595 3.3918912447988969 3.1932250522077084 4.1374065764248362 12.979655927047132 3.1117223277688026 4.0388407111167899 4.1205920297652465 3.3587887138128281 4.3406402654945841 3.0901164915412664 82.873249933123589 3.3101589120924464 3.0772618819028139 3.4237056821584693 3.8379249982535839 76.986878737807274
leaf_count=249 144 70 64 90 801 66 89 243 73 96 188 1849 199 189 209 224 4757
internal_value=-0.00294263 0.0988633 0.00209871 0.10498 -0.101696 0.105274 0.10495 -0.101685 0.105172 0.104942 -0.101759 0.104938 -0.101677 -0.101715 -0.101674 -0.101779 -0.101673
internal_weight=227.271 111.906 6.6534 105.253 115.365 9.8624 95.3901 110.826 6.47051 91.2527 11.0486 87.2139 99.7777 6.38742 93.3902 7.95852 89.9665
internal_count=9600 2541 208 2333 7059 209 2124 6810 139 2034 655 1945 6155 388 5767 467 5558
is_linear=0
shrinkage=0.1


Tree=28
num_leaves=18
num_cat=0
split_feature=4 4 1 1 0 1 3 10 0 1 3 0 3 0 12 0 1
split_gain=205.726 6.30977 3.58472 0.00010989 0.000116803 2.59886e-05 1.60097e-05 1.33936e-05 3.39119e-06 2.47112e-06 2.21183e-06 1.85358e-06 1.40349e-06 3.1084e-07 4.80248e-08 4.13621e-08 2.89091e-10
threshold=9.5000000000000018 10.500000000000002 68.500000000000014 80.500000000000014 16.500000000000004 72.500000000000014 7.5000000000000009 30.500000000000004 14.500000000000002 49.500000000000007 9.5000000000000018 9.5000000000000018 4.5000000000000009 27.500000000000004 10.500000000000002 11.500000000000002 33.500000000000007
decision_type=2 2 2 2 2 2 2 2 2 2 2 2 2 2 2 2 2
left_child=5 2 -2 4 -3 7 -6 -1 10 15 -5 -11 13 -10 -14 16 -9
right_child=1 3 -4 8 6 -7 -8 9 12 11 -12 -13 14 -15 -16 -17 -18
leaf_value=-0.10171662829292288 -0.07003422948028476 0.10528385264226725 0.079748527814232695 0.10456897275035107 0.10474046173469265 -0.10181447071496395 0.10446435655444108 -0.1015111735041703 0.10441443138480591 -0.10152363452819653 0.10445241252689313 -0.10162064475378457 0.10444296214512244 0.10436951779372342 0.1044364178900332 -0.10152248362297943 -0.10151216894922739
leaf_weight=3.4564306093379846 3.3255544546991578 3.2098484933376303 3.0755422431975603 3.3785721845924845 3.5646195337176305 3.1579140601679674 5.1114355809986591 83.635147455148399 3.0763435997068873 4.1225400008261195 3.1419614404439926 3.7714594779536128 57.144192721694708 3.0873825289309025 13.95131755247712 3.3803168199956408 3.0229089381173244
leaf_count=213 135 68 73 81 83 188 125 5703 76 279 77 241 1403 77 343 229 206
internal_value=-0.00293757 0.0980524 0.00193206 0.104484 0.104768 -0.101532 0.104578 -0.101523 0.104444 -0.101516 0.104513 -0.10157 0.104438 0.104392 0.104442 -0.101512 -0.101511
internal_weight=206.613 102.067 6.4011 95.6657 11.8859 104.547 8.67606 101.389 83.7798 97.9324 6.52053 7.894 77.2592 6.16373 71.0955 90.0384 86.6581
internal_count=9600 2541 208 2333 276 7059 208 6871 2057 6658 158 520 1899 153 1746 6138 5909
is_linear=0
shrinkage=0.1


Tree=29
num_leaves=16
num_cat=0
split_feature=4 4 1 1 0 1 3 10 0 1 0 3 0 0 1
split_gain=185.269 6.01692 2.79765 8.03889e-05 7.74014e-05 1.83809e-05 1.17616e-05 9.42684e-06 2.4802e-06 1.7723e-06 1.31092e-06 1.02507e-06 3.05377e-08 2.3804e-09 1.42947e-10
threshold=9.5000000000000018 10.500000000000002 67.500000000000014 80.500000000000014 17.500000000000004 71.500000000000014 7.5000000000000009 30.500000000000004 14.500000000000002 49.500000000000007 9.5000000000000018 4.5000000000000009 11.500000000000002 17.500000000000004 31.500000000000004
decision_type=2 2 2 2 2 2 2 2 2 2 2 2 2 2 2
left_child=5 2 -2 4 -3 7 -6 -1 -5 12 -11 -10 14 -13 -9
right_child=1 3 -4 8 6 -7 -8 9 11 10 -12 13 -14 -15 -16
leaf_value=-0.1015481083989781 -0.065209935132851518 0.10471960224108633 0.069559619191830804 0.10406500817799043 0.10427257508033912 -0.10161861159997623 0.10402222497639257 -0.10136530278650718 0.10395658429609385 -0.10137628226431164 -0.10146380897340485 0.10399890014862506 -0.10137550794073485 0.10400134821865106 -0.10136600170654086
leaf_weight=3.0683639710769048 3.0989555288106194 3.0659245364367944 3.0625138469040394 5.9241159036755553 3.2023544572293758 3.2274489570409051 4.5329226292669773 75.474189958535135 5.5993348434567443 3.5338933914899817 3.3176490040495992 4.2518351301550856 3.0628459239378563 60.33661076426506 3.0443624714389435
leaf_count=209 134 72 74 158 82 214 122 5680 153 264 234 115 229 1631 229
internal_value=-0.00293222 0.0972694 0.0017763 0.104039 0.104294 -0.101384 0.104126 -0.101376 0.104003 -0.10137 -0.101419 0.103998 -0.101366 0.104001 -0.101365
internal_weight=187.803 93.0746 6.16147 86.9131 10.8012 94.7288 7.73528 91.5013 76.1119 88.4329 6.85154 70.1878 81.5814 64.5884 78.5186
internal_count=9600 2541 208 2333 276 7059 204 6845 2057 6636 498 1899 6138 1746 5909
is_linear=0
shrinkage=0.1


Tree=30
num_leaves=19
num_cat=0
split_feature=4 10 4 3 10 3 3 7 11 10 6 10 4 10 11 10 10 4
split_gain=166.839 5.78726 0.389113 2.33754e-05 1.29102e-05 2.19978e-06 1.72394e-06 4.61625e-07 3.63752e-07 1.62179e-07 1.52695e-07 9.12089e-08 6.74257e-08 6.47337e-08 1.11847e-08 9.92415e-11 6.12843e-14 7.10543e-15
threshold=9.5000000000000018 29.500000000000004 10.500000000000002 3.5000000000000004 30.500000000000004 15.500000000000002 1.0000000180025095e-35 1.0000000180025095e-35 1.0000000180025095e-35 168.50000000000003 1.0000000180025095e-35 103.50000000000001 3.5000000000000004 105.50000000000001 1.0000000180025095e-35 202.50000000000003 114.50000000000001 1.5000000000000002
decision_type=2 2 2 2 2 2 2 2 2 2 2 2 2 2 2 2 2 2
left_child=4 2 -2 -4 -1 7 9 -5 11 10 13 -8 -10 -6 -7 -11 -12 -17
right_child=1 -3 3 5 6 14 8 -9 12 15 16 -13 -14 -15 -16 17 -18 -19
leaf_value=-0.10144221721777294 0.069493269952333403 -0.023047615111944753 0.10388177688702277 0.10364782876527019 -0.10124560645053329 0.10360707431476671 -0.10130311062336786 0.10362454138444786 -0.10124789875230705 -0.10123431649102309 -0.10123369983303049 -0.1012797928481388 -0.10126779394937735 -0.10126292944190068 0.10360182822878661 -0.10123374952793258 -0.10123371985238871 -0.10123374953284958
leaf_weight=3.3788801031187168 3.4876191988587371 3.8672196567058554 3.7494413107633582 29.433760911226273 4.3471016110852343 27.621559843420982 3.4661160139366967 11.97573811560869 3.0045075435191393 3.2878969721496096 3.0576816704124203 3.2507948828861117 3.933733525685966 4.2820734363049269 4.7650737538933745 33.58774424996227 3.2262703664600849 16.998528563417494
leaf_count=249 66 182 106 868 358 822 276 355 247 273 254 262 320 350 142 2790 268 1412
internal_value=-0.00292607 0.096465 0.102169 0.103638 -0.101251 0.103626 -0.101243 0.103641 -0.101275 -0.101236 -0.101246 -0.101292 -0.101259 -0.101254 0.103606 -0.101234 -0.101234 -0.101234
internal_weight=170.722 84.9004 81.0332 77.5456 85.8213 73.7961 82.4424 41.4095 13.6552 68.7873 14.9131 6.71691 6.93824 8.62918 32.3866 53.8742 6.28395 50.5863
internal_count=9600 2541 2359 2293 7059 2187 6810 1223 1105 5705 1230 538 567 708 964 4475 522 4202
is_linear=0
shrinkage=0.1


Tree=31
num_leaves=15
num_cat=0
split_feature=4 1 4 1 10 1 10 1 12 1 4 10 2 10
split_gain=150.598 5.5384 0.59747 4.87416e-05 6.38848e-06 6.193e-06 5.56126e-06 1.16303e-06 2.23167e-07 1.09586e-07 8.14705e-08 4.49953e-08 3.3741e-08 6.85296e-09
threshold=10.500000000000002 77.500000000000014 9.5000000000000018 80.500000000000014 27.500000000000004 63.500000000000007 34.500000000000007 49.500000000000007 15.500000000000002 107.50000000000001 16.500000000000004 13.500000000000002 1.0000000180025095e-35 74.500000000000014
decision_type=2 2 2 2 2 2 2 2 2 2 2 2 2 2
left_child=1 2 6 5 9 -2 -1 13 -9 12 -11 -12 -5 -8
right_child=3 -3 -4 4 -6 -7 7 8 -10 10 11 -13 -14 -15
leaf_value=-0.10125485499198371 0.10359965733810823 0.03789547425717734 -0.060964223361711506 0.10327041699866889 0.10340041442047776 0.10343270204239925 -0.101119323782563 -0.10117538677654483 -0.10113881905160282 0.10326363348997009 0.10325141523762577 0.10324406866258005 0.10325662386043183 -0.1011149193513198
leaf_weight=3.1498120017349711 4.1025715209543687 3.0594118256121865 3.8925681356340638 3.9231399018317452 3.0731326285749665 4.8463532291352749 3.7424636697396627 3.6741185579448929 3.0579475788399577 4.6500708386301985 37.23738276027143 10.741617647930978 3.2366897165775299 63.007218741811812
leaf_count=263 124 125 163 128 97 152 342 321 275 152 1221 353 106 5778
internal_value=-0.00291708 -0.0941659 -0.0991834 0.103291 0.10326 0.103509 -0.101125 -0.101119 -0.101159 0.103253 0.103251 0.10325 0.103264 -0.101115
internal_weight=155.394 83.5835 80.5241 71.811 62.862 8.94892 76.6316 73.4817 6.73207 59.7889 52.6291 47.979 7.15983 66.7497
internal_count=9600 7267 7142 2333 2057 276 6979 6716 596 1960 1726 1574 234 6120
is_linear=0
shrinkage=0.1


Tree=32
num_leaves=13
num_cat=0
split_feature=4 4 1 0 1 3 0 0 3 3 4 1
split_gain=135.616 5.37828 3.5813e-05 2.05214e-05 1.74579e-05 2.68007e-06 1.22271e-06 3.72251e-07 2.23321e-07 1.63806e-07 6.59888e-10 3.0866e-11
threshold=9.5000000000000018 10.500000000000002 80.500000000000014 20.500000000000004 69.500000000000014 2.5000000000000004 14.500000000000002 9.5000000000000018 4.5000000000000009 15.500000000000002 2.5000000000000004 19.500000000000004
decision_type=2 2 2 2 2 2 2 2 2 2 2 2
left_child=4 -2 3 -3 5 7 -4 10 -8 -10 11 -1
right_child=1 2 6 -5 -6 -7 8 -9 9 -11 -12 -13
leaf_value=-0.10100773006427187 0.0013027306007765279 0.10336941719896137 0.10299034829511798 0.10304118365330384 -0.10125496758727864 -0.10109492137022454 0.10291363614666565 -0.10103668753252711 0.10294411071905246 0.10293241330181578 -0.10100637868954099 -0.10100744688792294
leaf_weight=50.531778413802385 5.6550665898248544 3.0498603284358961 4.4470528643578282 5.0731468163430691 3.1678640916943541 3.9276960436254731 4.2049407940357915 4.7624445669352999 21.714961130172014 26.680667884647846 4.004878479987382 4.1670341501012436
leaf_count=5116 208 98 158 178 273 372 153 470 782 964 406 422
internal_value=-0.00290464 0.0948505 0.102968 0.103164 -0.101026 -0.101015 0.10294 -0.10101 0.102936 0.102938 -0.101008 -0.101008
internal_weight=141.387 70.8257 65.1706 8.12301 70.5617 67.3938 57.0476 63.4661 52.6006 48.3956 58.7037 54.6988
internal_count=9600 2541 2333 276 7059 6786 2057 6414 1899 1746 5944 5538
is_linear=0
shrinkage=0.1


Tree=33
num_leaves=13
num_cat=0
split_feature=4 4 1 1 0 3 0 0 3 3 4 1
split_gain=122.006 5.31906 2.63264e-05 1.26123e-05 1.23239e-05 1.76458e-06 8.98486e-07 2.65319e-07 1.63737e-07 1.20507e-07 4.69115e-10 2.31495e-11
threshold=9.5000000000000018 10.500000000000002 80.500000000000014 68.500000000000014 21.500000000000004 2.5000000000000004 14.500000000000002 9.5000000000000018 4.5000000000000009 15.500000000000002 2.5000000000000004 19.500000000000004
decision_type=2 2 2 2 2 2 2 2 2 2 2 2
left_child=3 -2 4 5 -3 7 -4 10 -8 -10 11 -1
right_child=1 2 6 -5 -6 -7 8 -9 9 -11 -12 -13
leaf_value=-0.10091091314344652 0.0011721830746148391 0.10300832975816708 0.1026977287396823 -0.10112277495960985 0.10274578653486732 -0.10098637010281349 0.10262871241197341 -0.10093668582530796 0.1026561182251637 0.10264558480036541 -0.10090969877951511 -0.10091065493524543
leaf_weight=45.764680759049952 5.6563186896964899 3.0497290175408116 4.0347409583628169 3.1297925002872935 4.3212961386889219 3.4515581289306274 3.8148126788437358 4.2840750971809021 19.700823079794645 24.205690130591393 3.5198767110705367 3.7560416832566252
leaf_count=5116 208 109 158 300 167 362 153 467 782 964 394 420
internal_value=-0.00289213 0.093815 0.102678 -0.100927 0.102854 -0.100917 0.102652 -0.100913 0.102649 0.10265 -0.100911 -0.100911
internal_weight=128.689 64.7834 59.1271 63.906 7.37103 60.7762 51.7561 57.3247 47.7213 43.9065 53.0406 49.5207
internal_count=9600 2541 2333 7059 276 6759 2057 6397 1899 1746 5930 5536
is_linear=0
shrinkage=0.1


Tree=34
num_leaves=13
num_cat=0
split_feature=4 10 4 1 1 0 10 0 1 10 10 10
split_gain=109.746 5.48816 0.422139 1.54778e-05 8.74641e-06 6.25481e-06 1.28562e-06 4.97038e-07 1.99706e-07 2.62517e-08 2.74127e-10 5.22604e-11
threshold=9.5000000000000018 29.500000000000004 10.500000000000002 80.500000000000014 67.500000000000014 23.500000000000004 53.500000000000007 14.500000000000002 47.500000000000007 12.500000000000002 85.500000000000014 180.50000000000003
decision_type=2 2 2 2 2 2 2 2 2 2 2 2
left_child=4 2 -2 5 6 -4 -1 -5 10 -9 -8 -12
right_child=1 -3 3 7 -6 -7 8 9 -10 -11 11 -13
leaf_value=-0.10089025852175215 0.06575727162354239 -0.031118544190277021 0.10265634425364707 0.10242406071809672 -0.10100361497790339 0.10245886511239706 -0.10082438881537353 0.10238681976662234 -0.10084947089160153 0.10238147373913993 -0.10082322560324795 -0.10082348593911793
leaf_weight=3.214432784356176 3.342336466535925 3.3736742129549375 3.0886507090181103 3.5545215699821702 3.023144884966313 3.3364202231168747 3.1868544351309529 29.188570078462362 3.1514655677601686 13.403209347277878 9.8556963177397829 35.441401508636773
leaf_count=373 66 182 124 154 323 143 393 1282 378 590 1217 4375
internal_value=-0.00287854 0.092744 0.100217 0.102408 -0.100838 0.102554 -0.100829 0.102388 -0.100825 0.102385 -0.100823 -0.100823
internal_weight=117.16 59.2874 55.9137 52.5714 57.873 6.42507 54.8499 46.1463 51.6354 42.5918 48.484 45.2971
internal_count=9600 2541 2359 2293 7059 267 6736 2026 6363 1872 5985 5592
is_linear=0
shrinkage=0.1


Tree=35
num_leaves=12
num_cat=0
split_feature=4 0 10 4 1 10 1 0 3 1 12
split_gain=99.1195 5.24979 0.31035 6.04262e-05 1.66823e-05 8.02918e-06 1.87449e-06 4.60139e-07 8.29333e-08 1.07563e-08 5.94486e-09
threshold=10.500000000000002 14.500000000000002 29.500000000000004 7.5000000000000009 79.500000000000014 26.500000000000004 56.500000000000007 14.500000000000002 5.5000000000000009 29.500000000000004 10.500000000000002
decision_type=2 2 2 2 2 2 2 2 2 2 2
left_child=1 2 -1 6 -2 7 9 -6 -9 -4 -10
right_child=4 -3 3 -5 5 -7 -8 8 10 -11 -12
leaf_value=-0.067815245882683534 0.10234813377330661 0.02710793658996943 -0.10074451043656725 -0.1011599540272356 0.10219363572235152 0.10232622904920015 -0.10082621499274003 0.10213962514235558 0.10215581628537979 -0.10075066858918701 0.10215239428875099
leaf_weight=3.0237893513403824 5.8816073872148982 3.5172961750067762 41.422835712321103 3.8923458335921159 3.1045066229999057 3.0028799828141919 3.0305153881199649 3.8340841028839341 26.668842207640409 3.0448615150526157 6.2703349571675053
leaf_count=248 266 183 5647 395 148 137 382 187 1291 412 304
internal_value=-0.00286697 -0.0912957 -0.0989493 -0.100781 0.10219 0.102169 -0.10075 0.102157 0.102154 -0.100745 0.102155
internal_weight=106.694 57.9316 54.4143 51.3906 48.7623 42.8806 47.4982 39.8778 36.7733 44.4677 32.9392
internal_count=9600 7267 7084 6836 2333 2067 6441 1930 1782 6059 1595
is_linear=0
shrinkage=0.1


Tree=36
num_leaves=12
num_cat=0
split_feature=4 4 1 1 10 0 0 10 4 1 10
split_gain=89.4594 4.73185 1.22969e-05 5.45585e-06 4.68682e-06 1.25404e-06 2.93531e-07 1.36409e-07 1.00873e-08 9.17645e-10 2.72848e-12
threshold=9.5000000000000018 10.500000000000002 79.500000000000014 64.500000000000014 25.500000000000004 10.500000000000002 15.500000000000002 74.500000000000014 40.500000000000007 19.500000000000004 180.50000000000003
decision_type=2 2 2 2 2 2 2 2 2 2 2
left_child=3 -2 -3 5 6 7 -4 -1 -8 10 -9
right_child=1 2 4 -5 -6 -7 8 9 -10 -11 -12
leaf_value=-0.10069530854824534 0.0020546262451347293 0.10211986104713702 0.10197516441566042 -0.10081785028544472 0.10207118990131142 -0.10073666268764869 0.10194231404615191 -0.1006730809708602 0.10194588679565747 -0.10067467386034526 -0.10067315598514114
leaf_weight=3.048454623669385 5.308189967647194 5.3331888988614073 3.41456439718604 3.064740849658846 3.3399578388780347 3.5812659198418251 14.035041136667131 5.8840185077860943 18.08651577308774 4.4325667945668092 27.623448263853788
leaf_count=447 208 266 180 400 170 501 751 886 966 666 4159
internal_value=-0.00285125 0.0912659 0.101977 -0.100689 0.101958 -0.10068 0.101947 -0.100675 0.101944 -0.100673 -0.100673
internal_weight=97.152 49.5175 44.2093 47.6345 38.8761 44.5698 35.5361 40.9885 32.1216 37.94 33.5075
internal_count=9600 2541 2333 7059 2067 6659 1897 6158 1717 5711 5045
is_linear=0
shrinkage=0.1


Tree=37
num_leaves=12
num_cat=0
split_feature=10 3 4 4 10 1 1 0 12 10 10
split_gain=80.8918 4.55034 0.00340515 7.43564e-05 4.7016e-06 1.74881e-06 1.47273e-06 4.67518e-08 3.57773e-09 2.70717e-12 4.86722e-13
threshold=30.500000000000004 3.5000000000000004 12.500000000000002 7.5000000000000009 25.500000000000004 80.500000000000014 52.500000000000007 5.5000000000000009 10.500000000000002 114.50000000000001 180.50000000000003
decision_type=2 2 2 2 2 2 2 2 2 2 2
left_child=1 -1 -3 6 5 -4 7 9 -7 -2 -11
right_child=3 2 4 -5 -6 8 -8 -9 -10 10 -12
leaf_value=0.0029181492442082145 -0.10060858396953257 0.105094366652236 0.1018314380745977 -0.10108413522998015 0.10189370540588033 0.10175795842218319 -0.10068113274478128 -0.10062129221573826 0.10175524240026064 -0.10060864401921032 -0.10060868364276797
leaf_weight=5.2352048452012232 3.3368973173201075 3.3776690550148478 3.5710864923894396 3.7020467165857545 3.1158503107726565 23.887161940336231 3.1430259384214869 3.2188629312440744 6.0855999868363133 3.5296455631032613 26.30883597349748
leaf_count=382 555 127 203 426 173 1407 480 526 359 587 4375
internal_value=-0.00283513 0.0905921 0.102056 -0.100656 0.101776 0.101765 -0.100615 -0.10061 0.101757 -0.100609 -0.100609
internal_weight=88.5119 45.2726 40.0374 43.2393 36.6597 33.5438 39.5373 36.3942 29.9728 33.1754 29.8385
internal_count=9600 2651 2269 6949 2142 1969 6523 6043 1766 5517 4962
is_linear=0
shrinkage=0.1


Tree=38
num_leaves=15
num_cat=0
split_feature=4 4 1 1 4 0 0 1 1 1 12 1 0 6
split_gain=72.9223 4.37531 9.33099e-06 3.6991e-06 8.75406e-07 8.1324e-07 3.25768e-07 6.31484e-08 5.11756e-08 2.75603e-09 5.19183e-10 8.39336e-10 4.52616e-11 7.10543e-15
threshold=9.5000000000000018 10.500000000000002 79.500000000000014 55.500000000000007 39.500000000000007 8.5000000000000018 15.500000000000002 170.50000000000003 19.500000000000004 213.50000000000003 86.500000000000014 10.500000000000002 69.500000000000014 1.0000000180025095e-35
decision_type=2 2 2 2 2 2 2 2 2 2 2 2 2 2
left_child=3 -2 -3 5 6 8 -4 -8 10 -6 11 -1 -11 -12
right_child=1 2 4 -5 9 -7 7 -9 -10 12 13 -13 -14 -15
leaf_value=-0.10055041097811945 0.0015106213547292477 0.10175972596779037 0.10164963167824233 -0.10066003525745822 0.10159049578033569 -0.10060406087294962 0.10161007526346913 0.10162595772552058 -0.10056313605571593 0.1015870198352094 -0.10055042136617692 -0.10055252750311834 0.10158740789748993 -0.10055042521314211
leaf_weight=4.0394680672325221 4.9584598494693628 4.4298381200060239 3.1875557759776738 3.8674367773346594 3.1426180871203533 3.3296621823683372 10.00557893887162 3.3387211803346863 3.7348883384838691 7.2738453736528736 9.0917085739783943 3.4945529839023948 5.122137850150466 11.661423800047487
leaf_count=742 208 266 201 622 204 569 643 213 674 473 1670 640 333 2142
internal_value=-0.00281829 0.0896502 0.101624 -0.100567 0.101605 -0.100557 0.101621 0.101614 -0.100552 0.101588 -0.100551 -0.100551 0.101587 -0.10055
internal_weight=80.6779 41.4588 36.5003 39.2191 32.0705 35.3517 16.5319 13.3443 32.022 15.5386 28.2872 7.53402 12.396 20.7531
internal_count=9600 2541 2333 7059 2067 6437 1057 856 5868 1010 5194 1382 806 3812
is_linear=0
shrinkage=0.1


Tree=39
num_leaves=13
num_cat=0
split_feature=10 3 4 4 10 1 1 0 10 4 10 0
split_gain=65.9461 4.20855 0.00227462 6.48427e-05 1.83973e-06 8.55428e-07 7.35762e-07 4.46028e-09 6.39347e-09 1.86056e-10 1.36779e-12 3.55271e-15
threshold=30.500000000000004 3.5000000000000004 13.500000000000002 7.5000000000000009 24.500000000000004 83.500000000000014 47.500000000000007 4.5000000000000009 180.50000000000003 22.500000000000004 180.50000000000003 1.5000000000000002
decision_type=2 2 2 2 2 2 2 2 2 2 2 2
left_child=1 -1 -3 6 5 -4 7 10 -9 -7 -2 -12
right_child=3 2 4 -5 -6 9 -8 8 -10 -11 11 -13
leaf_value=0.0022417878621843169 -0.10049770883852278 0.10411967826686397 0.10149008573093832 -0.10097511238320148 0.1015227782081569 0.10143464915862979 -0.10055008291808445 -0.10050379951231764 -0.1004977708626663 0.10143382767270666 -0.10049777086839476 -0.10049777085528006
leaf_weight=4.8787399474531403 4.4351091282442274 3.5756162554025641 3.0698225414380493 3.2006635633297256 3.0250133825466028 3.1929855402559069 3.0464066369459024 3.3605491435155264 3.691482599824667 20.192788813263178 7.1513234213925925 10.719591883942483
leaf_count=382 900 171 213 426 207 229 573 675 749 1449 1451 2175
internal_value=-0.00280035 0.0889418 0.101738 -0.100546 0.101449 0.10144 -0.100503 -0.100498 -0.100501 0.101434 -0.100498 -0.100498
internal_weight=73.5401 37.935 33.0562 35.6051 29.4806 26.4556 32.4045 29.3581 7.05203 23.3858 22.306 17.8709
internal_count=9600 2651 2269 6949 2098 1891 6523 5950 1424 1678 4526 3626
is_linear=0
shrinkage=0.1


Tree=40
num_leaves=12
num_cat=0
split_feature=4 4 3 10 10 1 1 0 10 12 10
split_gain=59.4477 4.04491 1.82891e-05 5.30896e-06 1.235e-06 4.4924e-07 3.7129e-07 2.40665e-09 3.1125e-09 1.2632e-09 1.89004e-12
threshold=9.5000000000000018 10.500000000000002 4.5000000000000009 60.500000000000007 23.500000000000004 43.500000000000007 89.500000000000014 4.5000000000000009 223.50000000000003 10.500000000000002 176.50000000000003
decision_type=2 2 2 2 2 2 2 2 2 2 2
left_child=3 -2 -3 -1 6 7 -4 10 -9 -8 -5
right_child=1 2 4 5 -6 -7 9 8 -10 -11 -12
leaf_value=-0.1005930711120212 0.0010294764411185838 0.10155387983241547 0.10133201941459957 -0.10045009991114857 0.10136507371394235 -0.10049135234310634 0.10129582825294546 -0.10045470153578401 -0.10045017814508979 0.10129381522923962 -0.10045017797669663
leaf_weight=3.0736964349634937 4.6391086690127841 3.4337405767291811 3.2199480803683462 3.8317902018316188 3.3923979429528108 3.0315648643299928 16.22803309746087 3.0330829992890349 3.0516934818588197 3.8584543140605083 16.275691797025502
leaf_count=559 208 235 249 859 258 635 1285 674 684 306 3648
internal_value=-0.0027816 0.087954 0.101337 -0.100468 0.101309 -0.100455 0.1013 -0.100451 -0.100452 0.101295 -0.10045
internal_weight=67.0692 34.7717 30.1326 32.2975 26.6988 29.2238 23.3064 26.1923 6.08478 20.0865 20.1075
internal_count=9600 2541 2333 7059 2098 6500 1840 5865 1358 1591 4507
is_linear=0
shrinkage=0.1


Tree=41
num_leaves=12
num_cat=0
split_feature=10 3 4 4 10 1 1 12 10 10 1
split_gain=53.7641 3.89183 0.00187883 4.47193e-05 7.3285e-07 3.18463e-07 2.85722e-07 8.76497e-10 8.31001e-10 8.9301e-11 3.55271e-15
threshold=30.500000000000004 3.5000000000000004 13.500000000000002 6.5000000000000009 22.500000000000004 95.500000000000014 31.500000000000004 10.500000000000002 125.50000000000001 205.50000000000003 16.500000000000004
decision_type=2 2 2 2 2 2 2 2 2 2 2
left_child=1 -1 -3 6 5 -4 8 -7 -2 -10 -11
right_child=3 2 4 -5 -6 7 -8 -9 9 10 -12
leaf_value=0.0016273864422049287 -0.10040902605938776 0.10379917426971869 0.10120591128488604 -0.10079640370890988 0.10122591710216287 0.10117116797795288 -0.10044025952634375 0.10116939002123493 -0.1004077437478131 -0.1004071554016879 -0.10040715638816076
leaf_weight=4.5547512583434608 3.0201143496669927 3.0963324485346702 3.0279070967808428 3.4121436793357125 3.4158461028709999 14.313997349701824 3.0084632690995923 3.4388524964451781 3.0489062136039164 13.626280589029195 3.2106855157762757
leaf_count=382 745 171 258 578 288 1251 703 301 754 3374 795
internal_value=-0.00276164 0.0871992 0.10148 -0.100456 0.101183 0.101176 -0.100411 0.101171 -0.100407 -0.100407 -0.100407
internal_weight=61.1743 31.8477 27.2929 29.3266 24.1966 20.7808 25.9144 17.7528 22.906 19.8859 16.837
internal_count=9600 2651 2269 6949 2098 1810 6371 1552 5668 4923 4169
is_linear=0
shrinkage=0.1


Tree=42
num_leaves=12
num_cat=0
split_feature=10 3 1 0 0 3 1 2 10 3 1
split_gain=48.283 3.83741 0.000767275 1.43341e-05 1.20877e-05 2.99847e-06 2.80122e-06 9.82857e-07 5.99126e-08 2.33378e-11 3.55271e-15
threshold=30.500000000000004 3.5000000000000004 78.500000000000014 9.5000000000000018 19.500000000000004 15.500000000000002 21.500000000000004 1.0000000180025095e-35 176.50000000000003 35.500000000000007 15.500000000000002
decision_type=2 2 2 2 2 2 2 2 2 2 2
left_child=1 -1 -3 6 -4 7 8 -6 -2 -7 -10
right_child=3 2 4 -5 5 9 -8 -9 10 -11 -12
leaf_value=0.0014643295072333932 -0.10038185919249679 0.10281094876207467 0.10128947320486299 -0.10060465223375561 0.10110932630742558 0.10105796272273038 -0.10047442113775507 0.10118094394810434 -0.1003682605980534 0.10105827222138548 -0.10036825798115644
leaf_weight=4.5556880231015411 4.0561691708862879 3.1023275610059526 3.8677449366077807 3.3883876078762105 4.3364249672740725 4.2162018343806249 3.010094008408486 3.4334764527156949 12.290234565269204 5.771761218085885 3.801836780505254
leaf_count=382 1093 240 345 728 408 407 726 312 3362 557 1040
internal_value=-0.00274076 0.0858024 0.10134 -0.100413 0.101129 0.101094 -0.100384 0.101141 -0.100371 0.101058 -0.100368
internal_weight=55.8303 29.2836 24.7279 26.5467 21.6256 17.7579 23.1583 7.7699 20.1482 9.98796 16.0921
internal_count=9600 2651 2269 6949 2029 1684 6221 720 5495 964 4402
is_linear=0
shrinkage=0.1


Tree=43
num_leaves=12
num_cat=0
split_feature=4 4 3 10 10 1 1 10 4 10 12
split_gain=43.9898 3.51108 2.34584e-05 5.95456e-06 3.14344e-07 1.27816e-07 6.09045e-08 1.77675e-10 1.1563e-10 3.55271e-15 1.77636e-15
threshold=9.5000000000000018 10.500000000000002 5.5000000000000009 68.500000000000014 20.500000000000004 25.500000000000004 118.50000000000001 180.50000000000003 37.500000000000007 340.50000000000006 120.50000000000001
decision_type=2 2 2 2 2 2 2 2 2 2 2
left_child=3 -2 -3 -1 6 7 -4 -5 -8 -9 -11
right_child=1 2 4 5 -6 -7 8 9 -10 10 -12
leaf_value=-0.10048597301580434 0.00026732710084447761 0.10123680377090286 0.10097205488608851 -0.10033386903120121 0.10099338564950891 -0.1003555038016178 0.1009557267584611 -0.10033309188994416 0.10095643778216423 -0.10033309382527378 -0.10033309121778045
leaf_weight=3.0447014484088895 4.0819959617219892 3.8276875903829959 3.035095312632623 3.6934397527948084 3.2850326467305413 3.0082359572406849 3.0099912136793128 4.3544469804037353 9.5247413311153633 3.1566411289386433 6.9651343808509409
leaf_count=705 208 338 319 1114 340 865 321 1316 1015 954 2105
internal_value=-0.00271801 0.0856462 0.101011 -0.100355 0.100965 -0.100336 0.100959 -0.100333 0.100956 -0.100333 -0.100333
internal_weight=50.9871 26.7645 22.6825 24.2226 18.8549 21.1779 15.5698 18.1697 12.5347 14.4762 10.1218
internal_count=9600 2541 2333 7059 1995 6354 1655 5489 1336 4375 3059
is_linear=0
shrinkage=0.1


Tree=44
num_leaves=11
num_cat=0
split_feature=3 3 1 10 0 1 3 0 10 3
split_gain=39.4367 3.50152 0.000534066 0.000362474 1.13375e-05 4.89024e-06 2.51549e-06 3.18198e-07 5.34567e-08 1.2923e-11
threshold=2.5000000000000004 3.5000000000000004 83.500000000000014 72.500000000000014 19.500000000000004 19.500000000000004 15.500000000000002 30.500000000000004 188.50000000000003 35.500000000000007
decision_type=2 2 2 2 2 2 2 2 2 2
left_child=3 -2 -3 -1 -4 8 7 -6 -5 -8
right_child=1 2 4 5 6 -7 9 -9 -10 -11
leaf_value=-0.10150683535354872 0.0015489270416992845 0.10237523692999145 0.10111459258281608 -0.10031608792905507 0.10097165581202322 -0.1004349133210333 0.10086444221948594 0.10092629536177558 -0.10030129312226591 0.10086469650850111
leaf_weight=3.0317757248412844 4.2671800432726767 3.0364854214713004 3.0021823318675187 3.0496603387873646 3.1058277161791912 3.5228479597717515 3.4582193596288544 3.0801794892176986 12.261018553050233 4.7341264924034476
leaf_count=638 595 288 322 1001 345 1003 407 350 4094 557
internal_value=-0.0026953 0.0839332 0.101152 -0.100492 0.100938 -0.100329 0.100901 0.100949 -0.100304 0.100865
internal_weight=46.5495 24.6842 20.417 21.8653 17.3805 18.8335 14.3784 6.18601 15.3107 8.19235
internal_count=9600 2864 2269 6736 1981 6098 1659 695 5095 964
is_linear=0
shrinkage=0.1


Tree=45
num_leaves=11
num_cat=0
split_feature=4 4 3 3 0 0 4 12 4 12
split_gain=35.9615 3.18074 2.35766e-05 2.40358e-06 1.25993e-07 6.76349e-08 1.18388e-08 2.44422e-09 6.90736e-12 5.32907e-15
threshold=9.5000000000000018 10.500000000000002 5.5000000000000009 1.0000000180025095e-35 21.500000000000004 4.5000000000000009 39.500000000000007 86.500000000000014 86.500000000000014 421.50000000000006
decision_type=2 2 2 2 2 2 2 2 2 2
left_child=3 -2 -3 5 -4 7 -6 -1 -8 -9
right_child=1 2 4 -5 6 -7 8 9 -10 -11
leaf_value=-0.10027573724147279 0.00067809655517115915 0.10108386551060417 0.10080662682733806 -0.10036203028445112 0.10078806362312259 -0.10028898667282256 0.10078180422821824 -0.10027252405890706 0.10078161092605818 -0.10027252914453327
leaf_weight=3.2184618206229088 3.8160925535485175 3.2794904797337976 3.118283463176339 4.2003349561709902 4.7218830739147943 3.5898106424137941 3.1558095621876419 5.8085158613976073 4.4632851984351873 3.1821395349688828
leaf_count=1180 208 338 395 1288 610 1274 410 2143 580 1174
internal_value=-0.00266983 0.0838937 0.10084 -0.100295 0.100789 -0.100277 0.100784 -0.100273 0.100782 -0.100273
internal_weight=42.5541 22.5548 18.7388 19.9993 15.4593 15.7989 12.341 12.2091 7.61909 8.99066
internal_count=9600 2541 2333 7059 1995 5771 1600 4497 990 3317
is_linear=0
shrinkage=0.1


Tree=46
num_leaves=10
num_cat=0
split_feature=10 4 4 3 10 1 1 10 3
split_gain=32.4915 2.97892 2.06659e-05 1.38099e-05 9.20268e-08 3.95257e-08 6.48384e-09 1.1433e-10 2.53477e-11
threshold=30.500000000000004 10.500000000000002 4.5000000000000009 6.5000000000000009 17.500000000000004 18.500000000000004 162.50000000000003 215.50000000000003 35.500000000000007
decision_type=2 2 2 2 2 2 2 2 2
left_child=1 -1 5 -3 6 7 -5 -2 -8
right_child=2 3 -4 4 -6 -7 8 -9 -10
leaf_value=0.0023516474190109298 -0.10024724369086585 0.10093275023108833 -0.10053521690129585 0.10071211299700296 0.10072805793101212 -0.10025950191481976 0.10070641344716783 -0.10024653706704219 0.10070678639357962
leaf_weight=3.757184601621705 3.0666761116590378 3.6280972147360471 3.0345074995420864 3.022484634537248 3.0231497720815232 3.021300202002748 3.5523148085922003 9.037806803127749 3.7423454723320901
leaf_count=318 1247 431 834 431 424 1184 510 3684 537
internal_value=-0.0026451 0.0829201 -0.100297 0.10076 0.100713 -0.100249 0.100708 -0.100247 0.100707
internal_weight=38.8859 20.7256 18.1603 16.9684 13.3403 15.1258 10.3171 12.1045 7.29466
internal_count=9600 2651 6949 2333 1902 6115 1478 4931 1047
is_linear=0
shrinkage=0.1


Tree=47
num_leaves=10
num_cat=0
split_feature=4 1 4 10 4 10 1 1 12
split_gain=29.314 2.95155 0.0210666 2.88306e-06 9.39138e-07 3.22814e-08 4.47421e-10 8.88178e-15 8.88178e-16
threshold=9.5000000000000018 77.500000000000014 17.500000000000004 87.500000000000014 39.500000000000007 180.50000000000003 313.50000000000006 13.500000000000002 232.50000000000003
decision_type=2 2 2 2 2 2 2 2 2
left_child=3 -2 -3 -1 -4 -5 -6 8 -7
right_child=1 2 4 5 6 7 -8 -9 -10
leaf_value=-0.10033400115693736 0.0073331583459138152 0.10989857928902154 0.1006964027932938 -0.10023394810754492 0.10064062353123758 -0.10022302202621854 0.10063894596798464 -0.10022301689321361 -0.10022302420200353
leaf_weight=3.031975039048123 4.1591935739852515 3.1273118071258059 5.4038175516761822 3.7463850341737261 3.0209025437943637 3.0950870721135271 3.3561508483253419 3.206021775258705 3.4125965216662735
leaf_count=1059 404 317 810 1625 478 1394 532 1444 1537
internal_value=-0.00261941 0.0818213 0.102603 -0.100246 0.100666 -0.100226 0.10064 -0.100223 -0.100223
internal_weight=35.5594 19.0674 14.9082 16.4921 11.7809 13.4601 6.37705 9.71371 6.50768
internal_count=9600 2541 2137 7059 1820 6000 1010 4375 2931
is_linear=0
shrinkage=0.1


Tree=48
num_leaves=9
num_cat=0
split_feature=3 3 4 4 1 10 10 10
split_gain=26.7208 2.76688 0.000531807 0.000292665 2.479e-07 5.70242e-08 4.8386e-09 4.09628e-12
threshold=2.5000000000000004 3.5000000000000004 18.500000000000004 3.5000000000000004 133.50000000000003 172.50000000000003 8.5000000000000018 355.50000000000006
decision_type=2 2 2 2 2 2 2 2
left_child=3 -2 -3 5 -4 -1 -6 -7
right_child=1 2 4 -5 6 7 -8 -9
leaf_value=-0.10021773040837414 0.0013884270496500794 0.10206873671421811 0.10061331955966944 -0.10129775991770432 0.10057776069853348 -0.10020189499314053 0.10058284993464128 -0.1002017522546413
leaf_weight=3.0007391902618101 3.4843501918949213 3.1201167814433566 3.0303138820454461 3.0888972424436352 4.9175171661190689 3.0480803416576219 3.0126718753017485 5.9015869467984885
leaf_count=1426 595 380 504 857 861 1516 524 2937
internal_value=-0.00259439 0.0811735 0.100917 -0.10043 0.100589 -0.100206 0.10058 -0.100202
internal_weight=32.6043 17.565 14.0806 15.0393 10.9605 11.9504 7.93019 8.94967
internal_count=9600 2864 2269 6736 1889 5879 1385 4453
is_linear=0
shrinkage=0.1


Tree=49
num_leaves=8
num_cat=0
split_feature=3 4 4 3 4 12 12
split_gain=23.9503 2.72176 0.000197064 9.69727e-06 8.38352e-08 1.80248e-08 6.00497e-11
threshold=2.5000000000000004 10.500000000000002 2.5000000000000004 7.5000000000000009 40.500000000000007 84.500000000000014 286.50000000000006
decision_type=2 2 2 2 2 2 2
left_child=2 -2 5 -3 -5 -1 -7
right_child=1 3 -4 4 -6 6 -8
leaf_value=-0.10019178124194278 0.00010658284621152489 0.10073073960441498 -0.10109685611050362 0.10054130682310303 0.10052253657872579 -0.10018308569563911 -0.10018250633270287
leaf_weight=3.1409153044223803 3.4138531365897533 3.282781050540506 3.0602037404896683 4.5440168846398574 4.9953524540178478 3.0170123664429411 4.3951077113160864
leaf_count=1677 531 513 986 854 966 1656 2417
internal_value=-0.00256588 0.079456 -0.10039 0.100582 0.100531 -0.100185 -0.100183
internal_weight=29.8492 16.236 13.6132 12.8222 9.53937 10.553 7.41212
internal_count=9600 2864 6736 2333 1820 5750 4073
is_linear=0
shrinkage=0.1


Tree=50
num_leaves=8
num_cat=0
split_feature=10 1 4 1 3 10 1
split_gain=21.9364 2.45755 0.0225958 7.19248e-06 6.23421e-07 1.49493e-07 2.66454e-15
threshold=30.500000000000004 80.500000000000014 21.500000000000004 20.500000000000004 14.500000000000002 243.50000000000003 9.5000000000000018
decision_type=2 2 2 2 2 2 2
left_child=1 -1 -3 5 -4 -2 -7
right_child=3 2 4 -5 -6 6 -8
leaf_value=0.009847428746447201 -0.10019213190326187 0.11054785506630459 0.10053027390844101 -0.10034869763872277 0.10047285431478281 -0.10016511942769275 -0.10016511521268137
leaf_weight=3.7700324405450401 3.0331536220619437 3.106463542673735 3.0794981308281422 3.1462917401222503 4.8988448893651366 3.067647427204065 3.2420387642923743
leaf_count=552 1755 439 614 1360 1046 1864 1970
internal_value=-0.00253486 0.0795917 0.103312 -0.100218 0.100495 -0.100174 -0.100165
internal_weight=27.344 14.8548 11.0848 12.4891 7.97834 9.34284 6.30969
internal_count=9600 2651 2099 6949 1660 5589 3834
is_linear=0
shrinkage=0.1


Tree=51
num_leaves=6
num_cat=0
split_feature=4 4 4 12 4
split_gain=19.7971 2.32419 2.38869e-06 8.49426e-07 8.841e-09
threshold=9.5000000000000018 10.500000000000002 38.500000000000007 120.50000000000001 24.500000000000004
decision_type=2 2 2 2 2
left_child=3 -2 4 -1 -3
right_child=1 2 -4 -5 -6
leaf_value=-0.10020406496804371 0.0023539508759630929 0.10052328293955758 0.1004313366649715 -0.10014937033059342 0.10053092172282274
leaf_weight=5.8037189571186918 3.1226057270541778 3.031705361325292 4.5678573120385408 5.5593798398040235 3.028856351505965
leaf_count=3326 208 636 1071 3733 626
internal_value=-0.00250725 0.078202 0.100486 -0.100177 0.100527
internal_weight=25.1141 13.751 10.6284 11.3631 6.06056
internal_count=9600 2541 2333 7059 1262
is_linear=0
shrinkage=0.1


Tree=52
num_leaves=7
num_cat=0
split_feature=3 1 12 4 12 4
split_gain=18.0423 2.00661 0.00175362 0.000297174 6.73106e-05 1.11316e-07
threshold=3.5000000000000004 56.500000000000007 28.500000000000004 23.500000000000004 196.50000000000003 43.500000000000007
decision_type=2 2 2 2 2 2
left_child=1 2 -1 -2 -4 -5
right_child=3 -3 4 5 -6 -7
leaf_value=-0.09752228648322199 0.10157982492380249 -0.007030597291745805 -0.10075380733967404 0.10041259996502927 -0.10013513538786803 0.10038655601603748
leaf_weight=3.0118582178838569 3.1401688891928625 3.0408794443355864 3.0297940280288458 3.0201446667779237 4.1913842485519126 3.594180071959272
leaf_count=1658 585 754 1809 747 3110 937
internal_value=-0.00247628 -0.0783545 -0.0995493 0.100779 -0.100395 0.100398
internal_weight=23.0284 13.2739 10.233 9.75449 7.22118 6.61432
internal_count=9600 7331 6577 2269 4919 1684
is_linear=0
shrinkage=0.1


Tree=53
num_leaves=6
num_cat=0
split_feature=3 3 10 3 10
split_gain=16.2874 1.70258 9.17902e-05 7.20673e-05 8.73659e-08
threshold=2.5000000000000004 4.5000000000000009 131.50000000000003 15.500000000000002 374.50000000000006
decision_type=2 2 2 2 2
left_child=2 -2 -1 -3 -4
right_child=1 3 4 -5 -6
leaf_value=-0.10080192638375825 0.016917700770883875 0.10095029995729127 -0.10014571826967084 0.10034962644175789 -0.10012230058099808
leaf_weight=3.0235653424169886 3.4259639899246386 4.9535260680131596 3.0014877914218232 3.3469567513093352 3.3953152616741136
leaf_count=1611 723 1177 2342 964 2783
internal_value=-0.00243199 0.0762281 -0.100348 0.100708 -0.100133
internal_weight=21.1468 11.7264 9.42037 8.30048 6.3968
internal_count=9600 2864 6736 2141 5125
is_linear=0
shrinkage=0.1


Tree=54
num_leaves=5
num_cat=0
split_feature=10 4 3 10
split_gain=14.8594 1.64935 3.98022e-06 3.31527e-06
threshold=30.500000000000004 12.500000000000002 10.500000000000002 180.50000000000003
decision_type=2 2 2 2
left_child=1 -1 -3 -2
right_child=3 2 -4 -5
leaf_value=0.013997730917189333 -0.10023537156638203 0.10047023491365668 0.10032298308826526 -0.1001106485737223
leaf_weight=3.0958714818116295 3.8141141852829588 3.0012971463147551 4.7262928825803101 4.830143116414547
leaf_count=407 2574 764 1480 4375
internal_value=-0.00240531 0.0756719 0.10038 -0.100166
internal_weight=19.4677 10.8235 7.72759 8.64426
internal_count=9600 2651 2244 6949
is_linear=0
shrinkage=0.1


Tree=55
num_leaves=5
num_cat=0
split_feature=4 1 4 1
split_gain=13.4629 2.01102 0.0130203 1.08214e-06
threshold=9.5000000000000018 83.500000000000014 29.500000000000004 17.500000000000004
decision_type=2 2 2 2
left_child=3 -2 -3 -1
right_child=1 2 -4 -5
leaf_value=-0.10010252417423045 0.0066483445277018055 0.10902598800208535 0.10030452934437134 -0.10017840633806184
leaf_weight=4.7964483377290916 3.0430813108105195 3.0006796943489462 3.9851044805254787 3.0900718995835632
leaf_count=4752 474 709 1358 2307
internal_value=-0.00237715 0.0744957 0.104051 -0.100132
internal_weight=17.9154 10.0289 6.98578 7.88652
internal_count=9600 2541 2067 7059
is_linear=0
shrinkage=0.1


Tree=56
num_leaves=5
num_cat=0
split_feature=3 1 1 10
split_gain=12.1668 1.50627 9.40524e-05 7.75844e-05
threshold=3.5000000000000004 49.500000000000007 152.50000000000003 215.50000000000003
decision_type=2 2 2 2
left_child=1 3 -2 -1
right_child=2 -3 -4 -5
leaf_value=-0.10077458708336068 0.10104309283644437 -0.01553976873525482 0.10029385457294082 -0.10009057153726608
leaf_weight=3.0149128476623464 3.0460602135863146 3.0412631579092704 3.7235087640583515 3.6849924858543091
leaf_count=2295 876 960 1393 4076
internal_value=-0.00234343 -0.0739049 0.100631 -0.100398
internal_weight=16.5107 9.74117 6.76957 6.69991
internal_count=9600 7331 2269 6371
is_linear=0
shrinkage=0.1


Tree=57
num_leaves=4
num_cat=0
split_feature=3 1 12
split_gain=11.1003 1.66379 4.665e-05
threshold=2.5000000000000004 89.500000000000014 82.500000000000014
decision_type=2 2 2
left_child=2 -2 -1
right_child=1 -3 -4
leaf_value=-0.10062220401975058 0.012507897245293376 0.10435997985672806 -0.10008749564767053
leaf_weight=3.0291829552152203 3.0397337817121279 5.6145935014355928 3.5364649326074868
leaf_count=2505 866 1998 4231
internal_value=-0.00228643 0.072098 -0.100334
internal_weight=15.22 8.65433 6.56565
internal_count=9600 2864 6736
is_linear=0
shrinkage=0.1


Tree=58
num_leaves=3
num_cat=0
split_feature=10 1
split_gain=10.0718 1.48199
threshold=30.500000000000004 93.500000000000014
decision_type=2 2
left_child=1 -1
right_child=-2 -3
leaf_value=0.015644817186817393 -0.10013158874491548 0.10421368257305513
leaf_weight=3.0284670761320722 6.0166979849454956 5.0221035787835717
leaf_count=682 6949 1969
internal_value=-0.00225416 0.0708958
internal_weight=14.0673 8.05057
internal_count=9600 2651
is_linear=0
shrinkage=0.1


Tree=59
num_leaves=3
num_cat=0
split_feature=0 1
split_gain=9.21941 1.16375
threshold=15.500000000000002 42.500000000000007
decision_type=2 2
left_child=1 -1
right_child=-2 -3
leaf_value=-0.10040904896711898 0.10198079423674292 -0.021320070527182058
leaf_weight=4.8683393993414938 5.1388787364121526 3.0112772335414775
leaf_count=6185 2106 1309
internal_value=-0.00222445 -0.0701844
internal_weight=13.0185 7.87962
internal_count=9600 7494
is_linear=0
shrinkage=0.1


Tree=60
num_leaves=3
num_cat=0
split_feature=3 1
split_gain=8.40335 0.947974
threshold=3.5000000000000004 37.500000000000007
decision_type=2 2
left_child=1 -1
right_child=-2 -3
leaf_value=-0.10037336391721195 0.10055506313269857 -0.02699472323110055
leaf_weight=4.2561643042135984 4.7966862276662141 3.0026465820847079
leaf_count=6057 2269 1274
internal_value=-0.00215089 -0.0700199
internal_weight=12.0555 7.25881
internal_count=9600 7331
is_linear=0
shrinkage=0.1


Tree=61
num_leaves=3
num_cat=0
split_feature=4 1
split_gain=7.71911 1.00503
threshold=9.5000000000000018 113.50000000000001
decision_type=2 2
left_child=-1 -2
right_child=1 -3
leaf_value=-0.10009312407275364 0.026188932352603701 0.10506665956682811
leaf_weight=4.6723086772835813 3.0150693320902064 3.4795833399984986
leaf_count=7059 764 1777
internal_value=-0.00207006 0.0684486
internal_weight=11.167 6.49465
internal_count=9600 2541
is_linear=0
shrinkage=0.1


Tree=62
num_leaves=3
num_cat=0
split_feature=4 1
split_gain=7.08895 0.675463
threshold=10.500000000000002 27.500000000000004
decision_type=2 2
left_child=1 -1
right_child=-2 -3
leaf_value=-0.10036619059561591 0.10023722399741103 -0.034722196387457376
leaf_weight=3.2624397639883682 4.0991778397001326 3.0171959009603597
leaf_count=5802 2333 1465
internal_value=-0.00205342 -0.068826
internal_weight=10.3788 6.27964
internal_count=9600 7267
is_linear=0
shrinkage=0.1


Tree=63
num_leaves=3
num_cat=0
split_feature=1 1
split_gain=6.4551 0.765861
threshold=80.500000000000014 30.500000000000004
decision_type=2 2
left_child=1 -1
right_child=-2 -3
leaf_value=-0.10033701220127199 0.10447449317230043 -0.029195050871780755
leaf_weight=3.039177174679935 3.5804955930216238 3.0137568184873089
leaf_count=5898 2099 1603
internal_value=-0.00195759 -0.0649154
internal_weight=9.63343 6.05293
internal_count=9600 7501
is_linear=0
shrinkage=0.1


Tree=64
num_leaves=2
num_cat=0
split_feature=0
split_gain=5.90442
threshold=15.500000000000002
decision_type=2
left_child=-1
right_child=-2
leaf_value=-0.065120660247183895 0.10198890648593043
leaf_weight=5.5851783636608161 3.4023360180435702
leaf_count=7494 2106
internal_value=-0.00185924
internal_weight=8.98751
internal_count=9600
is_linear=0
shrinkage=0.1


Tree=65
num_leaves=2
num_cat=0
split_feature=3
split_gain=5.58097
threshold=2.5000000000000004
decision_type=2
left_child=-1
right_child=-2
leaf_value=-0.10031693712849209 0.065418974552702708
leaf_weight=3.4138768082193565 5.0186232802807353
leaf_count=6736 2864
internal_value=-0.0016788
internal_weight=8.4325
internal_count=9600
is_linear=0
shrinkage=0.1


Tree=66
num_leaves=2
num_cat=0
split_feature=3
split_gain=5.0961
threshold=3.5000000000000004
decision_type=2
left_child=-1
right_child=-2
leaf_value=-0.064588541825369578 0.10056674347551209
leaf_weight=4.909589973569382 3.0160891410778277
leaf_count=7331 2269
internal_value=-0.00173928
internal_weight=7.92568
internal_count=9600
is_linear=0
shrinkage=0.1


Tree=67
num_leaves=2
num_cat=0
split_feature=0
split_gain=4.65422
threshold=14.500000000000002
decision_type=2
left_child=-1
right_child=-2
leaf_value=-0.072887378414193946 0.086273074220373558
leaf_weight=4.1000979164382443 3.3290675921016373
leaf_count=7293 2307
internal_value=-0.00156633
internal_weight=7.42917
internal_count=9600
is_linear=0
shrinkage=0.1


Tree=68
num_leaves=2
num_cat=0
split_feature=0
split_gain=4.02334
threshold=14.500000000000002
decision_type=2
left_child=-1
right_child=-2
leaf_value=-0.069261183470498977 0.083141493675500999
leaf_weight=3.8942935639061034 3.1200335465255193
leaf_count=7293 2307
internal_value=-0.00147115
internal_weight=7.01433
internal_count=9600
is_linear=0
shrinkage=0.1


Tree=69
num_leaves=2
num_cat=0
split_feature=1
split_gain=3.38877
threshold=69.500000000000014
decision_type=2
left_child=-1
right_child=-2
leaf_value=-0.067130519416547532 0.076069754865207617
leaf_weight=3.5987651504692622 3.0557378114608582
leaf_count=7103 2497
internal_value=-0.00137317
internal_weight=6.6545
internal_count=9600
is_linear=0
shrinkage=0.1


Tree=70
num_leaves=2
num_cat=0
split_feature=0
split_gain=3.00151
threshold=12.500000000000002
decision_type=2
left_child=-1
right_child=-2
leaf_value=-0.072411878714557343 0.065154566369498693
leaf_weight=3.0676079567347188 3.2839182290481403
leaf_count=6936 2664
internal_value=-0.00128615
internal_weight=6.35153
internal_count=9600
is_linear=0
shrinkage=0.1


Tree=71
num_leaves=2
num_cat=0
split_feature=1
split_gain=2.51764
threshold=66.500000000000014
decision_type=2
left_child=-1
right_child=-2
leaf_value=-0.064870821523208597 0.063848067962448088
leaf_weight=3.0737274047132814 3.0051515422237571
leaf_count=7003 2597
internal_value=-0.00123742
internal_weight=6.07888
internal_count=9600
is_linear=0
shrinkage=0.1


end of trees

feature_importances:
Column_1=169
Column_4=146
Column_10=132
Column_0=126
Column_3=91
Column_12=50
Column_11=7
Column_2=5
Column_6=2
Column_7=2

parameters:
[boosting: gbdt]
[objective: binary]
[metric: auc]
[tree_learner: serial]
[device_type: cpu]
[data_sample_strategy: bagging]
[data: ]
[valid: ]
[num_iterations: 200]
[learning_rate: 0.1]
[num_leaves: 31]
[num_threads: 1]
[seed: 42]
[deterministic: 0]
[force_col_wise: 0]
[force_row_wise: 0]
[histogram_pool_size: -1]
[max_depth: 6]
[min_data_in_leaf: 20]
[min_sum_hessian_in_leaf: 3]
[bagging_fraction: 0.8]
[pos_bagging_fraction: 1]
[neg_bagging_fraction: 1]
[bagging_freq: 0]
[bagging_seed: 400]
[bagging_by_query: 0]
[feature_fraction: 0.8]
[feature_fraction_bynode: 1]
[feature_fraction_seed: 30056]
[extra_trees: 0]
[extra_seed: 12879]
[early_stopping_round: 0]
[early_stopping_min_delta: 0]
[first_metric_only: 0]
[max_delta_step: 0]
[lambda_l1: 0]
[lambda_l2: 0]
[linear_lambda: 0]
[min_gain_to_split: 0]
[drop_rate: 0.1]
[max_drop: 50]
[skip_drop: 0.5]
[xgboost_dart_mode: 0]
[uniform_drop: 0]
[drop_seed: 17869]
[top_rate: 0.2]
[other_rate: 0.1]
[min_data_per_group: 100]
[max_cat_threshold: 32]
[cat_l2: 10]
[cat_smooth: 10]
[max_cat_to_onehot: 4]
[top_k: 20]
[monotone_constraints: ]
[monotone_constraints_method: basic]
[monotone_penalty: 0]
[feature_contri: ]
[forcedsplits_filename: ]
[refit_decay_rate: 0.9]
[cegb_tradeoff: 1]
[cegb_penalty_split: 0]
[cegb_penalty_feature_lazy: ]
[cegb_penalty_feature_coupled: ]
[path_smooth: 0]
[interaction_constraints: ]
[verbosity: -1]
[saved_feature_importance_type: 0]
[use_quantized_grad: 0]
[num_grad_quant_bins: 4]
[quant_train_renew_leaf: 0]
[stochastic_rounding: 1]
[linear_tree: 0]
[max_bin: 255]
[max_bin_by_feature: ]
[min_data_in_bin: 3]
[bin_construct_sample_cnt: 200000]
[data_random_seed: 175]
[is_enable_sparse: 1]
[enable_bundle: 1]
[use_missing: 1]
[zero_as_missing: 0]
[feature_pre_filter: 1]
[pre_partition: 0]
[two_round: 0]
[header: 0]
[label_column: ]
[weight_column: ]
[group_column: ]
[ignore_column: ]
[categorical_feature: ]
[forcedbins_filename: ]
[precise_float_parser: 0]
[parser_config_file: ]
[objective_seed: 16083]
[num_class: 1]
[is_unbalance: 0]
[scale_pos_weight: 1]
[sigmoid: 1]
[boost_from_average: 1]
[reg_sqrt: 0]
[alpha: 0.9]
[fair_c: 1]
[poisson_max_delta_step: 0.7]
[tweedie_variance_power: 1.5]
[lambdarank_truncation_level: 30]
[lambdarank_norm: 1]
[label_gain: ]
[lambdarank_position_bias_regularization: 0]
[eval_at: ]
[multi_error_top_k: 1]
[auc_mu_weights: ]
[num_machines: 1]
[local_listen_port: 12400]
[time_out: 120]
[machine_list_filename: ]
[machines: ]
[gpu_platform_id: -1]
[gpu_device_id: -1]
[gpu_use_dp: 0]
[num_gpu: 1]

end of parameters

pandas_categorical:null
